{"learner":{"attributes":{"scikit_learn":"{\"_estimator_type\": \"classifier\"}"},"feature_names":["location","last_3_team_wins","last_3_team_losses","last_3_team_points","last_3_team_opponent_points","last_3_team_first_downs_off","last_3_team_total_yards_off","last_3_team_pass_yards_off","last_3_team_rush_yards_off","last_3_team_turnovers_off","last_3_team_first_downs_def","last_3_team_total_yards_def","last_3_team_pass_yards_def","last_3_team_rush_yards_def","last_3_team_turnovers_def","last_3_team_team_strong_drives","last_3_team_opp_strong_drives","last_3_opp_wins","last_3_opp_losses","last_3_opp_points","last_3_opp_opponent_points","last_3_opp_first_downs_off","last_3_opp_total_yards_off","last_3_opp_pass_yards_off","last_3_opp_rush_yards_off","last_3_opp_turnovers_off","last_3_opp_first_downs_def","last_3_opp_total_yards_def","last_3_opp_pass_yards_def","last_3_opp_rush_yards_def","last_3_opp_turnovers_def","last_3_opp_team_strong_drives","last_3_opp_opp_strong_drives","last_1_team_wins","last_1_team_losses","last_1_team_points","last_1_team_opponent_points","last_1_team_first_downs_off","last_1_team_total_yards_off","last_1_team_pass_yards_off","last_1_team_rush_yards_off","last_1_team_turnovers_off","last_1_team_first_downs_def","last_1_team_total_yards_def","last_1_team_pass_yards_def","last_1_team_rush_yards_def","last_1_team_turnovers_def","last_1_team_team_strong_drives","last_1_team_opp_strong_drives","last_1_opp_wins","last_1_opp_losses","last_1_opp_points","last_1_opp_opponent_points","last_1_opp_first_downs_off","last_1_opp_total_yards_off","last_1_opp_pass_yards_off","last_1_opp_rush_yards_off","last_1_opp_turnovers_off","last_1_opp_first_downs_def","last_1_opp_total_yards_def","last_1_opp_pass_yards_def","last_1_opp_rush_yards_def","last_1_opp_turnovers_def","last_1_opp_team_strong_drives","last_1_opp_opp_strong_drives","player_odds","opponent_odds"],"feature_types":["int","float","float","float","float","float","float","float","float","float","float","float","float","float","float","float","float","float","float","float","float","float","float","float","float","float","float","float","float","float","float","float","float","float","float","float","float","float","float","float","float","float","float","float","float","float","float","float","float","float","float","float","float","float","float","float","float","float","float","float","float","float","float","float","float","float","float"],"gradient_booster":{"model":{"gbtree_model_param":{"num_parallel_tree":"1","num_trees":"100"},"iteration_indptr":[0,1,2,3,4,5,6,7,8,9,10,11,12,13,14,15,16,17,18,19,20,21,22,23,24,25,26,27,28,29,30,31,32,33,34,35,36,37,38,39,40,41,42,43,44,45,46,47,48,49,50,51,52,53,54,55,56,57,58,59,60,61,62,63,64,65,66,67,68,69,70,71,72,73,74,75,76,77,78,79,80,81,82,83,84,85,86,87,88,89,90,91,92,93,94,95,96,97,98,99,100],"tree_info":[0,0,0,0,0,0,0,0,0,0,0,0,0,0,0,0,0,0,0,0,0,0,0,0,0,0,0,0,0,0,0,0,0,0,0,0,0,0,0,0,0,0,0,0,0,0,0,0,0,0,0,0,0,0,0,0,0,0,0,0,0,0,0,0,0,0,0,0,0,0,0,0,0,0,0,0,0,0,0,0,0,0,0,0,0,0,0,0,0,0,0,0,0,0,0,0,0,0,0,0],"trees":[{"base_weights":[1.5401535E-3,1.0499772E0,-5.1848227E-1,1.3396806E0,6.5125585E-1,9.4930805E-2,-7.821384E-1,6.0174186E-2,1.5591048E-1,4.926556E-3,9.917141E-2,4.7416277E-2,-2.8727457E-2,-5.729708E-2,-1.2188484E-1],"categories":[],"categories_nodes":[],"categories_segments":[],"categories_sizes":[],"default_left":[0,0,0,0,0,0,0,0,0,0,0,0,0,0,0],"id":0,"left_children":[1,3,5,7,9,11,13,-1,-1,-1,-1,-1,-1,-1,-1],"loss_changes":[1.7799274E2,1.1630348E1,3.536832E1,7.275322E0,8.901915E0,9.224592E0,1.3185532E1,0E0,0E0,0E0,0E0,0E0,0E0,0E0,0E0],"parents":[2147483647,0,0,1,1,2,2,3,3,4,4,5,5,6,6],"right_children":[2,4,6,8,10,12,14,-1,-1,-1,-1,-1,-1,-1,-1],"split_conditions":[-1.76E2,-2.71E2,1E2,1.9E1,1.8E2,2.2666666E1,2.36E2,6.0174186E-2,1.5591048E-1,4.926556E-3,9.917141E-2,4.7416277E-2,-2.8727457E-2,-5.729708E-2,-1.2188484E-1],"split_indices":[65,65,65,5,44,19,65,0,0,0,0,0,0,0,0],"split_type":[0,0,0,0,0,0,0,0,0,0,0,0,0,0,0],"sum_hessian":[3.2446744E2,1.0723924E2,2.1722821E2,6.0743904E1,4.6495335E1,6.549343E1,1.5173477E2,1.2248771E1,4.8495136E1,1.624837E1,3.0246965E1,3.299669E1,3.249674E1,9.87401E1,5.2994682E1],"tree_param":{"num_deleted":"0","num_feature":"67","num_nodes":"15","size_leaf_vector":"1"}},{"base_weights":[1.7315684E-2,7.728068E-1,-4.6175107E-1,1.0632366E0,3.6475965E-1,-2.7705914E-1,-9.68564E-1,5.54598E-2,1.3130337E-1,-1.2112286E-2,7.305805E-2,-5.059146E-2,-6.6867174E-4,-1.4729229E-1,-7.417092E-2],"categories":[],"categories_nodes":[],"categories_segments":[],"categories_sizes":[],"default_left":[0,0,0,0,0,0,0,0,0,0,0,0,0,0,0],"id":1,"left_children":[1,3,5,7,9,11,13,-1,-1,-1,-1,-1,-1,-1,-1],"loss_changes":[1.209774E2,1.4982613E1,1.8880402E1,7.695221E0,9.31357E0,8.777751E0,5.18816E0,0E0,0E0,0E0,0E0,0E0,0E0,0E0,0E0],"parents":[2147483647,0,0,1,1,2,2,3,3,4,4,5,5,6,6],"right_children":[2,4,6,8,10,12,14,-1,-1,-1,-1,-1,-1,-1,-1],"split_conditions":[-1.57E2,-2.39E2,2.31E2,1.9E1,2.33E2,3E0,2.09E2,5.54598E-2,1.3130337E-1,-1.2112286E-2,7.305805E-2,-5.059146E-2,-6.6867174E-4,-1.4729229E-1,-7.417092E-2],"split_indices":[65,65,65,58,60,57,55,0,0,0,0,0,0,0,0],"split_type":[0,0,0,0,0,0,0,0,0,0,0,0,0,0,0],"sum_hessian":[3.3226974E2,1.2869843E2,2.0357132E2,7.4247025E1,5.4451397E1,1.5033365E2,5.3237682E1,2.2424055E1,5.182297E1,2.297935E1,3.1472048E1,8.340657E1,6.692707E1,1.691733E1,3.6320354E1],"tree_param":{"num_deleted":"0","num_feature":"67","num_nodes":"15","size_leaf_vector":"1"}},{"base_weights":[-2.378172E-2,5.0343764E-1,-6.312907E-1,1.8460873E-1,9.335331E-1,-4.3499726E-1,-9.62805E-1,3.0447826E-2,-8.2829155E-2,4.6776623E-2,1.1301855E-1,-7.0057474E-2,-1.3981881E-2,-1.14918865E-1,2.1700626E-2],"categories":[],"categories_nodes":[],"categories_segments":[],"categories_sizes":[],"default_left":[0,0,0,0,0,0,0,0,0,0,0,0,0,0,0],"id":2,"left_children":[1,3,5,7,9,11,13,-1,-1,-1,-1,-1,-1,-1,-1],"loss_changes":[1.0661493E2,2.4268635E1,9.644299E0,1.1636237E1,5.4608536E0,7.1790924E0,1.0459393E1,0E0,0E0,0E0,0E0,0E0,0E0,0E0,0E0],"parents":[2147483647,0,0,1,1,2,2,3,3,4,4,5,5,6,6],"right_children":[2,4,6,8,10,12,14,-1,-1,-1,-1,-1,-1,-1,-1],"split_conditions":[1E2,2E2,2.36E2,1.47E2,8.4E1,3.6433334E2,3E1,3.0447826E-2,-8.2829155E-2,4.6776623E-2,1.1301855E-1,-7.0057474E-2,-1.3981881E-2,-1.14918865E-1,2.1700626E-2],"split_indices":[65,66,65,13,40,22,35,0,0,0,0,0,0,0,0],"split_type":[0,0,0,0,0,0,0,0,0,0,0,0,0,0,0],"sum_hessian":[3.308772E2,1.7723619E2,1.53641E2,1.0260472E2,7.463147E1,9.795367E1,5.568734E1,9.286716E1,9.737568E0,2.0036263E1,5.4595207E1,5.3088108E1,4.4865555E1,4.9282974E1,6.4043684E0],"tree_param":{"num_deleted":"0","num_feature":"67","num_nodes":"15","size_leaf_vector":"1"}},{"base_weights":[-2.9927349E-2,4.50011E-1,-5.93453E-1,2.2816734E-1,8.661759E-1,-3.6825088E-1,-8.1834996E-1,-3.3198882E-2,4.0902726E-2,2.3631604E-2,1.048791E-1,-6.805481E-2,-1.0639615E-2,-1.0321895E-1,-2.3634419E-2],"categories":[],"categories_nodes":[],"categories_segments":[],"categories_sizes":[],"default_left":[0,0,0,0,0,0,0,0,0,0,0,0,0,0,0],"id":3,"left_children":[1,3,5,7,9,11,13,-1,-1,-1,-1,-1,-1,-1,-1],"loss_changes":[9.0003235E1,1.6397984E1,7.4496536E0,1.1181328E1,5.80954E0,6.005954E0,7.9963837E0,0E0,0E0,0E0,0E0,0E0,0E0,0E0,0E0],"parents":[2147483647,0,0,1,1,2,2,3,3,4,4,5,5,6,6],"right_children":[2,4,6,8,10,12,14,-1,-1,-1,-1,-1,-1,-1,-1],"split_conditions":[1.02E2,2.22E2,1.9E2,1.6E1,1.9E1,2.0333334E1,4.19E2,-3.3198882E-2,4.0902726E-2,2.3631604E-2,1.048791E-1,-6.805481E-2,-1.0639615E-2,-1.0321895E-1,-2.3634419E-2],"split_indices":[65,66,65,36,5,21,54,0,0,0,0,0,0,0,0],"split_type":[0,0,0,0,0,0,0,0,0,0,0,0,0,0,0],"sum_hessian":[3.3079395E2,1.7875499E2,1.5203897E2,1.1760953E2,6.1145462E1,7.728575E1,7.475321E1,2.7431082E1,9.0178444E1,1.2317938E1,4.8827522E1,3.598966E1,4.1296097E1,5.6383804E1,1.8369406E1],"tree_param":{"num_deleted":"0","num_feature":"67","num_nodes":"15","size_leaf_vector":"1"}},{"base_weights":[-1.8830216E-2,-5.8238244E-1,3.7351334E-1,-3.863197E-1,-8.8095576E-1,5.9935257E-2,7.0491266E-1,-8.438944E-2,-1.6321387E-2,-1.1626063E-1,-4.6710916E-2,5.247637E-2,-1.8754138E-2,2.011201E-2,8.686008E-2],"categories":[],"categories_nodes":[],"categories_segments":[],"categories_sizes":[],"default_left":[0,0,0,0,1,0,0,0,0,0,0,0,0,0,0],"id":4,"left_children":[1,3,5,7,9,11,13,-1,-1,-1,-1,-1,-1,-1,-1],"loss_changes":[7.0853485E1,7.358406E0,1.9593555E1,7.884555E0,4.9390793E0,1.0788192E1,6.3330917E0,0E0,0E0,0E0,0E0,0E0,0E0,0E0,0E0],"parents":[2147483647,0,0,1,1,2,2,3,3,4,4,5,5,6,6],"right_children":[2,4,6,8,10,12,14,-1,-1,-1,-1,-1,-1,-1,-1],"split_conditions":[-1.31E2,2.36E2,1.71E2,2.3333333E0,1.6666666E0,1.01E2,1.9E1,-8.438944E-2,-1.6321387E-2,-1.1626063E-1,-4.6710916E-2,5.247637E-2,-1.8754138E-2,2.011201E-2,8.686008E-2],"split_indices":[66,65,66,9,9,8,5,0,0,0,0,0,0,0,0],"split_type":[0,0,0,0,0,0,0,0,0,0,0,0,0,0,0],"sum_hessian":[3.184664E2,1.3051443E2,1.8795195E2,8.016606E1,5.0348377E1,9.717935E1,9.07726E1,2.6713488E1,5.345257E1,3.0788038E1,1.9560337E1,3.361583E1,6.3563526E1,1.9967564E1,7.080504E1],"tree_param":{"num_deleted":"0","num_feature":"67","num_nodes":"15","size_leaf_vector":"1"}},{"base_weights":[3.90373E-2,-1.5117915E-1,8.4571886E-1,2.0481316E-2,-5.2070796E-1,3.2274464E-1,9.8403513E-1,-3.4985223E-3,1.3805299E-1,-6.806908E-2,3.0547433E-2,8.359247E-2,-1.3786128E-2,2.7026651E-2,1.1618499E-1],"categories":[],"categories_nodes":[],"categories_segments":[],"categories_sizes":[],"default_left":[0,0,0,1,0,0,0,0,0,0,0,0,0,0,0],"id":5,"left_children":[1,3,5,7,9,11,13,-1,-1,-1,-1,-1,-1,-1,-1],"loss_changes":[4.9937687E1,1.6726778E1,4.173767E0,1.3059791E1,9.808559E0,3.3438444E0,4.780426E0,0E0,0E0,0E0,0E0,0E0,0E0,0E0,0E0],"parents":[2147483647,0,0,1,1,2,2,3,3,4,4,5,5,6,6],"right_children":[2,4,6,8,10,12,14,-1,-1,-1,-1,-1,-1,-1,-1],"split_conditions":[2.22E2,1.75E2,1.9E1,3E0,1.4933333E2,2.1E1,1.9666666E1,-3.4985223E-3,1.3805299E-1,-6.806908E-2,3.0547433E-2,8.359247E-2,-1.3786128E-2,2.7026651E-2,1.1618499E-1],"split_indices":[66,65,5,25,24,3,20,0,0,0,0,0,0,0,0],"split_type":[0,0,0,0,0,0,0,0,0,0,0,0,0,0,0],"sum_hessian":[3.2361224E2,2.6252188E2,6.109037E1,1.7989722E2,8.262466E1,1.3474945E1,4.7615425E1,1.7370741E2,6.1898017E0,7.066181E1,1.1962844E1,6.128848E0,7.346097E0,8.426891E0,3.9188534E1],"tree_param":{"num_deleted":"0","num_feature":"67","num_nodes":"15","size_leaf_vector":"1"}},{"base_weights":[-2.3754478E-2,3.486021E-1,-4.6198666E-1,8.204546E-1,2.1211454E-1,-7.4112004E-1,-2.307603E-1,-3.2934905E-3,1.0517647E-1,1.5526709E-2,1.1198272E-1,9.933526E-3,-9.272125E-2,-4.171049E-2,3.745385E-2],"categories":[],"categories_nodes":[],"categories_segments":[],"categories_sizes":[],"default_left":[0,0,0,0,0,0,0,0,0,0,0,0,0,0,0],"id":6,"left_children":[1,3,5,7,9,11,13,-1,-1,-1,-1,-1,-1,-1,-1],"loss_changes":[5.1750034E1,1.0870375E1,9.230221E0,6.5776978E0,7.0458574E0,8.854351E0,8.563285E0,0E0,0E0,0E0,0E0,0E0,0E0,0E0,0E0],"parents":[2147483647,0,0,1,1,2,2,3,3,4,4,5,5,6,6],"right_children":[2,4,6,8,10,12,14,-1,-1,-1,-1,-1,-1,-1,-1],"split_conditions":[1.04E2,-3.34E2,3.5766666E2,1.8E1,2.19E2,2.8133334E2,3E1,-3.2934905E-3,1.0517647E-1,1.5526709E-2,1.1198272E-1,9.933526E-3,-9.272125E-2,-4.171049E-2,3.745385E-2],"split_indices":[65,65,22,58,61,22,35,0,0,0,0,0,0,0,0],"split_type":[0,0,0,0,0,0,0,0,0,0,0,0,0,0,0],"sum_hessian":[3.1515036E2,1.704917E2,1.4465865E2,3.7127308E1,1.333644E2,6.454075E1,8.0117905E1,7.2553277E0,2.987198E1,1.2574079E2,7.6235967E0,1.0398217E1,5.414253E1,6.2189445E1,1.7928457E1],"tree_param":{"num_deleted":"0","num_feature":"67","num_nodes":"15","size_leaf_vector":"1"}},{"base_weights":[4.229742E-3,-4.6221766E-1,3.2888353E-1,-5.9592324E-1,-4.434466E-2,1.3355435E-1,6.378112E-1,-8.894651E-2,-2.3910355E-2,5.6852344E-2,-4.6559013E-2,2.6769515E-2,-3.6147576E-2,-1.5791083E-2,7.747235E-2],"categories":[],"categories_nodes":[],"categories_segments":[],"categories_sizes":[],"default_left":[0,0,0,0,0,1,0,0,0,0,0,0,0,0,0],"id":7,"left_children":[1,3,5,7,9,11,13,-1,-1,-1,-1,-1,-1,-1,-1],"loss_changes":[4.7997868E1,7.2412205E0,1.1191353E1,9.402901E0,8.188974E0,7.1904297E0,6.6701508E0,0E0,0E0,0E0,0E0,0E0,0E0,0E0,0E0],"parents":[2147483647,0,0,1,1,2,2,3,3,4,4,5,5,6,6],"right_children":[2,4,6,8,10,12,14,-1,-1,-1,-1,-1,-1,-1,-1],"split_conditions":[-1.31E2,4.19E2,1.95E2,3.3833334E2,2E1,2E0,1.7666666E1,-8.894651E-2,-2.3910355E-2,5.6852344E-2,-4.6559013E-2,2.6769515E-2,-3.6147576E-2,-1.5791083E-2,7.747235E-2],"split_indices":[66,54,66,6,3,14,5,0,0,0,0,0,0,0,0],"split_type":[0,0,0,0,0,0,0,0,0,0,0,0,0,0,0],"sum_hessian":[3.1495203E2,1.290768E2,1.8587523E2,9.746509E1,3.1611706E1,1.1475199E2,7.112323E1,5.5298286E1,4.21668E1,1.2693618E1,1.8918089E1,9.136775E1,2.3384247E1,8.97348E0,6.214975E1],"tree_param":{"num_deleted":"0","num_feature":"67","num_nodes":"15","size_leaf_vector":"1"}},{"base_weights":[6.2020053E-3,4.8623744E-1,-2.1324521E-1,1.5709443E-1,7.5661284E-1,-6.9980025E-2,-6.211674E-1,-5.794706E-2,4.2873647E-2,1.01823635E-1,4.242164E-2,-3.197141E-2,1.1626972E-2,-8.24342E-2,4.1484658E-2],"categories":[],"categories_nodes":[],"categories_segments":[],"categories_sizes":[],"default_left":[0,0,0,0,0,0,0,0,0,0,0,0,0,0,0],"id":8,"left_children":[1,3,5,7,9,11,13,-1,-1,-1,-1,-1,-1,-1,-1],"loss_changes":[3.3318096E1,8.711216E0,1.2642699E1,8.829922E0,3.9367962E0,7.1569443E0,1.0684675E1,0E0,0E0,0E0,0E0,0E0,0E0,0E0,0E0],"parents":[2147483647,0,0,1,1,2,2,3,3,4,4,5,5,6,6],"right_children":[2,4,6,8,10,12,14,-1,-1,-1,-1,-1,-1,-1,-1],"split_conditions":[-1.76E2,2.33E2,2.29E2,2.3333333E0,1.1E2,3.6666667E0,3E1,-5.794706E-2,4.2873647E-2,1.01823635E-1,4.242164E-2,-3.197141E-2,1.1626972E-2,-8.24342E-2,4.1484658E-2],"split_indices":[65,60,65,25,13,30,35,0,0,0,0,0,0,0,0],"split_type":[0,0,0,0,0,0,0,0,0,0,0,0,0,0,0],"sum_hessian":[3.142994E2,9.8223076E1,2.1607632E2,4.5010418E1,5.3212658E1,1.607806E2,5.529573E1,1.1611839E1,3.339858E1,3.0644669E1,2.256799E1,6.913917E1,9.1641426E1,4.722711E1,8.068618E0],"tree_param":{"num_deleted":"0","num_feature":"67","num_nodes":"15","size_leaf_vector":"1"}},{"base_weights":[-7.840565E-4,-1.5765321E-1,5.1335216E-1,-1.3568095E-2,-4.8533827E-1,2.592223E-1,8.5412616E-1,3.205115E-2,-1.5048197E-2,-6.393054E-2,1.4702144E-2,-4.7852686E-3,7.3226295E-2,1.4461701E-2,1.0624425E-1],"categories":[],"categories_nodes":[],"categories_segments":[],"categories_sizes":[],"default_left":[0,0,1,0,0,0,0,0,0,0,0,0,0,0,0],"id":9,"left_children":[1,3,5,7,9,11,13,-1,-1,-1,-1,-1,-1,-1,-1],"loss_changes":[2.4915243E1,1.1169003E1,6.0329857E0,7.175694E0,6.251793E0,5.9506273E0,3.7201633E0,0E0,0E0,0E0,0E0,0E0,0E0,0E0,0E0],"parents":[2147483647,0,0,1,1,2,2,3,3,4,4,5,5,6,6],"right_children":[2,4,6,8,10,12,14,-1,-1,-1,-1,-1,-1,-1,-1],"split_conditions":[1.95E2,1.81E2,1.3333334E0,8.4E1,4.1533334E2,3.9433334E2,2.98E2,3.205115E-2,-1.5048197E-2,-6.393054E-2,1.4702144E-2,-4.7852686E-3,7.3226295E-2,1.4461701E-2,1.0624425E-1],"split_indices":[66,65,14,61,22,6,59,0,0,0,0,0,0,0,0],"split_type":[0,0,0,0,0,0,0,0,0,0,0,0,0,0,0],"sum_hessian":[3.069189E2,2.35698E2,7.122093E1,1.6443591E2,7.126207E1,4.1805477E1,2.9415459E1,4.727072E1,1.171652E2,5.8606407E1,1.2655665E1,2.5478016E1,1.6327461E1,6.2316513E0,2.3183807E1],"tree_param":{"num_deleted":"0","num_feature":"67","num_nodes":"15","size_leaf_vector":"1"}},{"base_weights":[4.221817E-2,-1.5896729E-1,4.6024913E-1,-5.625635E-1,-5.383297E-2,1.8556339E-1,6.732719E-1,2.0760965E-2,-7.273674E-2,-5.7772513E-2,5.3491765E-3,-5.6548245E-2,3.6360398E-2,-1.5635764E-2,8.1521526E-2],"categories":[],"categories_nodes":[],"categories_segments":[],"categories_sizes":[],"default_left":[0,0,0,0,0,0,0,0,0,0,0,0,0,0,0],"id":10,"left_children":[1,3,5,7,9,11,13,-1,-1,-1,-1,-1,-1,-1,-1],"loss_changes":[2.6418758E1,8.974726E0,5.845602E0,4.9610214E0,9.127921E0,5.8569117E0,5.7138653E0,0E0,0E0,0E0,0E0,0E0,0E0,0E0,0E0],"parents":[2147483647,0,0,1,1,2,2,3,3,4,4,5,5,6,6],"right_children":[2,4,6,8,10,12,14,-1,-1,-1,-1,-1,-1,-1,-1],"split_conditions":[1.59E2,1.6E1,2.28E2,2.8E2,1.1E1,8.6333336E1,2.7333334E2,2.0760965E-2,-7.273674E-2,-5.7772513E-2,5.3491765E-3,-5.6548245E-2,3.6360398E-2,-1.5635764E-2,8.1521526E-2],"split_indices":[66,37,60,43,52,29,22,0,0,0,0,0,0,0,0],"split_type":[0,0,0,0,0,0,0,0,0,0,0,0,0,0,0],"sum_hessian":[3.1225858E2,2.1122311E2,1.0103547E2,4.275224E1,1.6847087E2,4.494783E1,5.6087635E1,6.7187114E0,3.6033527E1,2.8323017E1,1.4014786E2,7.9274735E0,3.702036E1,7.0203934E0,4.906724E1],"tree_param":{"num_deleted":"0","num_feature":"67","num_nodes":"15","size_leaf_vector":"1"}},{"base_weights":[2.4196422E-2,-1.5628022E-1,4.7342023E-1,-2.288479E-1,4.0099323E-1,1.8459687E-1,7.143528E-1,-4.986507E-2,-1.0241954E-2,2.8137576E-3,1.0621734E-1,4.1540686E-2,-5.4477017E-2,8.491666E-2,2.104444E-2],"categories":[],"categories_nodes":[],"categories_segments":[],"categories_sizes":[],"default_left":[0,0,0,0,0,0,0,0,0,0,0,0,0,0,0],"id":11,"left_children":[1,3,5,7,9,11,13,-1,-1,-1,-1,-1,-1,-1,-1],"loss_changes":[2.5474873E1,9.160861E0,6.1339645E0,6.5329647E0,6.1490407E0,6.8261914E0,2.5812855E0,0E0,0E0,0E0,0E0,0E0,0E0,0E0,0E0],"parents":[2147483647,0,0,1,1,2,2,3,3,4,4,5,5,6,6],"right_children":[2,4,6,8,10,12,14,-1,-1,-1,-1,-1,-1,-1,-1],"split_conditions":[1.66E2,3.38E2,3.49E2,-2E2,-1.14E2,2.7E1,3.02E2,-4.986507E-2,-1.0241954E-2,2.8137576E-3,1.0621734E-1,4.1540686E-2,-5.4477017E-2,8.491666E-2,2.104444E-2],"split_indices":[66,55,59,66,66,20,55,0,0,0,0,0,0,0,0],"split_type":[0,0,0,0,0,0,0,0,0,0,0,0,0,0,0],"sum_hessian":[3.1230344E2,2.2326025E2,8.904318E1,1.9805858E2,2.5201681E1,4.130002E1,4.7743164E1,6.562478E1,1.324338E2,1.6483335E1,8.718346E0,3.1937435E1,9.362581E0,3.8722656E1,9.020506E0],"tree_param":{"num_deleted":"0","num_feature":"67","num_nodes":"15","size_leaf_vector":"1"}},{"base_weights":[2.448126E-2,-2.0776011E-1,2.9198766E-1,-4.1911164E-1,-4.3523572E-3,8.1919655E-2,5.7794785E-1,-6.589914E-2,4.9340315E-3,1.1581921E-2,-8.454959E-2,-1.0610412E-2,5.1552698E-2,7.2610155E-2,-4.0675838E-2],"categories":[],"categories_nodes":[],"categories_segments":[],"categories_sizes":[],"default_left":[0,0,0,0,0,0,1,0,0,0,0,0,0,0,0],"id":12,"left_children":[1,3,5,7,9,11,13,-1,-1,-1,-1,-1,-1,-1,-1],"loss_changes":[1.9291042E1,7.146416E0,8.618715E0,8.451168E0,8.280276E0,6.587804E0,7.8378696E0,0E0,0E0,0E0,0E0,0E0,0E0,0E0,0E0],"parents":[2147483647,0,0,1,1,2,2,3,3,4,4,5,5,6,6],"right_children":[2,4,6,8,10,12,14,-1,-1,-1,-1,-1,-1,-1,-1],"split_conditions":[1.14E2,3.5833334E2,2.51E2,1.28E2,2.9866666E2,3.94E2,4E0,-6.589914E-2,4.9340315E-3,1.1581921E-2,-8.454959E-2,-1.0610412E-2,5.1552698E-2,7.2610155E-2,-4.0675838E-2],"split_indices":[66,22,44,61,28,59,62,0,0,0,0,0,0,0,0],"split_type":[0,0,0,0,0,0,0,0,0,0,0,0,0,0,0],"sum_hessian":[3.085381E2,1.652747E2,1.432634E2,8.0534546E1,8.474015E1,8.333298E1,5.993042E1,5.4405518E1,2.612903E1,7.489014E1,9.850012E0,5.832864E1,2.5004341E1,5.3231762E1,6.698658E0],"tree_param":{"num_deleted":"0","num_feature":"67","num_nodes":"15","size_leaf_vector":"1"}},{"base_weights":[-2.97654E-3,1.8046312E-1,-3.4758353E-1,6.2267053E-1,1.0373919E-1,-1.3425685E-1,-2.691515E-1,-4.810343E-3,8.681566E-2,-6.680063E-2,1.721917E-2,-3.6974937E-2,3.0396093E-2],"categories":[],"categories_nodes":[],"categories_segments":[],"categories_sizes":[],"default_left":[0,0,0,0,0,0,0,0,0,0,0,0,0],"id":13,"left_children":[1,3,5,7,9,-1,11,-1,-1,-1,-1,-1,-1],"loss_changes":[1.9433E1,6.7423816E0,7.662633E0,4.393758E0,8.3445835E0,0E0,5.1883273E0,0E0,0E0,0E0,0E0,0E0,0E0],"parents":[2147483647,0,0,1,1,2,2,3,3,4,4,6,6],"right_children":[2,4,6,8,10,-1,12,-1,-1,-1,-1,-1,-1],"split_conditions":[1.4E2,-3.62E2,4.3E1,1.8E1,2.23E2,-1.3425685E-1,3.35E2,-4.810343E-3,8.681566E-2,-6.680063E-2,1.721917E-2,-3.6974937E-2,3.0396093E-2],"split_indices":[65,65,40,37,43,0,55,0,0,0,0,0,0],"split_type":[0,0,0,0,0,0,0,0,0,0,0,0,0],"sum_hessian":[3.0542093E2,1.9963072E2,1.0579022E2,2.846332E1,1.711674E2,6.8309417E0,9.895928E1,7.254772E0,2.1208548E1,1.26089735E1,1.5855843E2,8.565456E1,1.3304726E1],"tree_param":{"num_deleted":"0","num_feature":"67","num_nodes":"13","size_leaf_vector":"1"}},{"base_weights":[4.9665724E-3,-6.0227994E-2,6.0528904E-1,1.7014014E-3,-5.827044E-1,9.127481E-1,1.5326412E-1,4.02046E-3,-1.1844031E-1,2.8286727E-2,-8.471384E-2,4.8411164E-2,1.1856523E-1,-4.8851527E-2,7.663978E-2],"categories":[],"categories_nodes":[],"categories_segments":[],"categories_sizes":[],"default_left":[0,0,0,0,0,0,0,0,0,0,0,0,0,0,0],"id":14,"left_children":[1,3,5,7,9,11,13,-1,-1,-1,-1,-1,-1,-1,-1],"loss_changes":[1.2008268E1,8.958394E0,4.037216E0,1.0743156E1,6.272374E0,1.3295765E0,5.317002E0,0E0,0E0,0E0,0E0,0E0,0E0,0E0,0E0],"parents":[2147483647,0,0,1,1,2,2,3,3,4,4,5,5,6,6],"right_children":[2,4,6,8,10,12,14,-1,-1,-1,-1,-1,-1,-1,-1],"split_conditions":[2.9E2,1.5133333E2,3E0,2.33E2,2.0366667E2,1.18E2,2.8E1,4.02046E-3,-1.1844031E-1,2.8286727E-2,-8.471384E-2,4.8411164E-2,1.1856523E-1,-4.8851527E-2,7.663978E-2],"split_indices":[66,13,41,56,23,29,35,0,0,0,0,0,0,0,0],"split_type":[0,0,0,0,0,0,0,0,0,0,0,0,0,0,0],"sum_hessian":[3.0488904E2,2.7583344E2,2.9055626E1,2.4749452E2,2.8338905E1,1.668652E1,1.2369107E1,2.4065881E2,6.835694E0,6.172078E0,2.2166828E1,6.8960967E0,9.790422E0,6.094849E0,6.274258E0],"tree_param":{"num_deleted":"0","num_feature":"67","num_nodes":"15","size_leaf_vector":"1"}},{"base_weights":[6.2110187E-3,-1.7649674E-1,2.2748308E-1,-7.709185E-1,-1.04046434E-1,4.8344295E-2,5.921748E-1,-1.1000115E-1,-3.546509E-2,1.3484446E-2,-3.2105017E-2,5.4996904E-2,-1.1444532E-2,7.975233E-2,-1.1639074E-2],"categories":[],"categories_nodes":[],"categories_segments":[],"categories_sizes":[],"default_left":[0,0,0,0,0,0,0,0,0,0,0,0,0,0,0],"id":15,"left_children":[1,3,5,7,9,11,13,-1,-1,-1,-1,-1,-1,-1,-1],"loss_changes":[1.2234509E1,7.0590777E0,8.912184E0,1.8985987E0,7.3170705E0,7.2589545E0,5.883128E0,0E0,0E0,0E0,0E0,0E0,0E0,0E0,0E0],"parents":[2147483647,0,0,1,1,2,2,3,3,4,4,5,5,6,6],"right_children":[2,4,6,8,10,12,14,-1,-1,-1,-1,-1,-1,-1,-1],"split_conditions":[3.56E2,-4.35E2,1.79E2,3.68E2,1.9666666E1,1.83E2,3.6E1,-1.1000115E-1,-3.546509E-2,1.3484446E-2,-3.2105017E-2,5.4996904E-2,-1.1444532E-2,7.975233E-2,-1.1639074E-2],"split_indices":[6,66,66,11,3,60,35,0,0,0,0,0,0,0,0],"split_type":[0,0,0,0,0,0,0,0,0,0,0,0,0,0,0],"sum_hessian":[3.006306E2,1.6477538E2,1.3585522E2,1.6854145E1,1.4792123E2,9.186376E1,4.3991467E1,9.036341E0,7.8178043E0,6.959432E1,7.832691E1,2.212296E1,6.97408E1,3.4863697E1,9.1277685E0],"tree_param":{"num_deleted":"0","num_feature":"67","num_nodes":"15","size_leaf_vector":"1"}},{"base_weights":[1.6450875E-2,3.1402376E-1,-1.0970529E-1,2.3154154E-1,1.0128308E-1,-2.0882276E-1,2.3161407E-1,4.20488E-2,-1.1881057E-2,-8.23547E-3,-7.429428E-2,-2.7661795E-2,5.7576723E-2],"categories":[],"categories_nodes":[],"categories_segments":[],"categories_sizes":[],"default_left":[0,0,0,0,0,0,0,0,0,0,0,0,0],"id":16,"left_children":[1,3,5,7,-1,9,11,-1,-1,-1,-1,-1,-1],"loss_changes":[1.1514605E1,4.817857E0,7.3388815E0,5.11962E0,0E0,1.1012096E1,8.181583E0,0E0,0E0,0E0,0E0,0E0,0E0],"parents":[2147483647,0,0,1,1,2,2,3,3,5,5,6,6],"right_children":[2,4,6,8,-1,10,12,-1,-1,-1,-1,-1,-1],"split_conditions":[-1.76E2,3.26E2,4.19E2,4E0,1.0128308E-1,3E1,2.22E2,4.20488E-2,-1.1881057E-2,-8.23547E-3,-7.429428E-2,-2.7661795E-2,5.7576723E-2],"split_indices":[65,44,54,41,0,51,60,0,0,0,0,0,0],"split_type":[0,0,0,0,0,0,0,0,0,0,0,0,0],"sum_hessian":[3.0480594E2,9.030601E1,2.1449992E2,8.160507E1,8.700936E0,1.6652893E2,4.7970993E1,5.392322E1,2.7681854E1,1.3402907E2,3.2499863E1,1.9057829E1,2.8913162E1],"tree_param":{"num_deleted":"0","num_feature":"67","num_nodes":"13","size_leaf_vector":"1"}},{"base_weights":[-3.921238E-2,1.590874E-1,-2.7220985E-1,2.7432016E-1,-1.6836493E-1,-1.884583E-1,-8.493846E-1,3.4552228E-2,-5.755466E-2,-5.005666E-2,4.1023895E-2,-2.7328203E-2,9.064407E-2,-2.0757092E-2,-1.2160621E-1],"categories":[],"categories_nodes":[],"categories_segments":[],"categories_sizes":[],"default_left":[0,0,0,1,0,0,0,0,0,0,0,0,0,0,0],"id":17,"left_children":[1,3,5,7,9,11,13,-1,-1,-1,-1,-1,-1,-1,-1],"loss_changes":[1.3949498E1,6.2052665E0,6.5470514E0,6.382799E0,7.9644E0,1.0320236E1,3.4821224E0,0E0,0E0,0E0,0E0,0E0,0E0,0E0,0E0],"parents":[2147483647,0,0,1,1,2,2,3,3,4,4,5,5,6,6],"right_children":[2,4,6,8,10,12,14,-1,-1,-1,-1,-1,-1,-1,-1],"split_conditions":[1.02E2,5E0,2.88E2,4E0,2.4833333E2,2.7733334E2,1.9E1,3.4552228E-2,-5.755466E-2,-5.005666E-2,4.1023895E-2,-2.7328203E-2,9.064407E-2,-2.0757092E-2,-1.2160621E-1],"split_indices":[65,46,28,62,12,28,3,0,0,0,0,0,0,0,0],"split_type":[0,0,0,0,0,0,0,0,0,0,0,0,0,0,0],"sum_hessian":[2.9997803E2,1.6222693E2,1.3775108E2,1.20118614E2,4.210831E1,1.2145391E2,1.6297178E1,1.12437355E2,7.681259E0,2.7069118E1,1.5039194E1,1.13990746E2,7.4631653E0,6.0681076E0,1.022907E1],"tree_param":{"num_deleted":"0","num_feature":"67","num_nodes":"15","size_leaf_vector":"1"}},{"base_weights":[-1.7935283E-2,4.3776732E-2,-5.827806E-1,-1.3567175E-1,2.3906124E-1,-8.040722E-1,2.2443943E-2,-2.1356134E-2,7.163229E-2,6.663244E-4,4.9542084E-2,-1.09415755E-1,-1.06323715E-2],"categories":[],"categories_nodes":[],"categories_segments":[],"categories_sizes":[],"default_left":[0,0,0,0,0,0,0,0,0,0,0,0,0],"id":18,"left_children":[1,3,5,7,9,11,-1,-1,-1,-1,-1,-1,-1],"loss_changes":[1.0383723E1,9.452785E0,5.374524E0,8.548424E0,7.270709E0,4.0999975E0,0E0,0E0,0E0,0E0,0E0,0E0,0E0],"parents":[2147483647,0,0,1,1,2,2,3,3,4,4,5,5],"right_children":[2,4,6,8,10,12,-1,-1,-1,-1,-1,-1,-1],"split_conditions":[1.5133333E2,2.39E2,3.5E1,3.3E1,1.12E2,2.0666666E1,2.2443943E-2,-2.1356134E-2,7.163229E-2,6.663244E-4,4.9542084E-2,-1.09415755E-1,-1.06323715E-2],"split_indices":[13,60,36,3,66,5,0,0,0,0,0,0,0],"split_type":[0,0,0,0,0,0,0,0,0,0,0,0,0],"sum_hessian":[2.9615665E2,2.678187E2,2.8337957E1,1.3972737E2,1.2809132E2,2.2199568E1,6.1383896E0,1.2931154E2,1.0415839E1,6.587386E1,6.2217464E1,1.5832429E1,6.367139E0],"tree_param":{"num_deleted":"0","num_feature":"67","num_nodes":"13","size_leaf_vector":"1"}},{"base_weights":[-3.2380703E-3,1.12258434E-1,-2.939723E-1,3.1855628E-2,7.3555195E-1,-1.720432E-1,-7.849109E-1,-3.5487472E-3,6.281199E-2,4.1761696E-2,1.18013635E-1,-6.2360264E-2,1.5408236E-2,-1.2821703E-1,-2.2231642E-2],"categories":[],"categories_nodes":[],"categories_segments":[],"categories_sizes":[],"default_left":[0,0,0,0,0,0,0,0,0,0,0,0,0,0,0],"id":19,"left_children":[1,3,5,7,9,11,13,-1,-1,-1,-1,-1,-1,-1,-1],"loss_changes":[9.902647E0,1.0554853E1,4.883774E0,7.2342377E0,2.7979574E0,9.64359E0,4.0299597E0,0E0,0E0,0E0,0E0,0E0,0E0,0E0,0E0],"parents":[2147483647,0,0,1,1,2,2,3,3,4,4,5,5,6,6],"right_children":[2,4,6,8,10,12,14,-1,-1,-1,-1,-1,-1,-1,-1],"split_conditions":[1.29E2,2.8E2,3.3E1,3.41E2,2.8666666E1,2.0333334E1,2.84E2,-3.5487472E-3,6.281199E-2,4.1761696E-2,1.18013635E-1,-6.2360264E-2,1.5408236E-2,-1.2821703E-1,-2.2231642E-2],"split_indices":[13,66,51,55,3,19,55,0,0,0,0,0,0,0,0],"split_type":[0,0,0,0,0,0,0,0,0,0,0,0,0,0,0],"sum_hessian":[2.9292505E2,2.1008212E2,8.284293E1,1.8700961E2,2.3072515E1,6.744322E1,1.5399705E1,1.6861246E2,1.839716E1,1.3902781E1,9.169735E0,2.8343683E1,3.9099545E1,7.8513923E0,7.5483127E0],"tree_param":{"num_deleted":"0","num_feature":"67","num_nodes":"15","size_leaf_vector":"1"}},{"base_weights":[1.1584289E-2,4.486689E-2,-9.653504E-2,2.2628912E-1,-1.2859248E-1,-2.0514298E-2,3.4732983E-2,8.714508E-3,-3.6993645E-2],"categories":[],"categories_nodes":[],"categories_segments":[],"categories_sizes":[],"default_left":[0,0,0,0,0,0,0,0,0],"id":20,"left_children":[1,3,-1,5,7,-1,-1,-1,-1],"loss_changes":[9.257061E0,8.925106E0,0E0,6.620873E0,7.1752734E0,0E0,0E0,0E0,0E0],"parents":[2147483647,0,0,1,1,3,3,4,4],"right_children":[2,4,-1,6,8,-1,-1,-1,-1],"split_conditions":[3E1,-1.19E2,-9.653504E-2,1.6666666E1,3.48E2,-2.0514298E-2,3.4732983E-2,8.714508E-3,-3.6993645E-2],"split_indices":[58,65,0,4,27,0,0,0,0],"split_type":[0,0,0,0,0,0,0,0,0],"sum_hessian":[2.906093E2,2.8168768E2,8.921623E0,1.3753471E2,1.4415298E2,2.8317736E1,1.0921698E2,7.525531E1,6.889767E1],"tree_param":{"num_deleted":"0","num_feature":"67","num_nodes":"9","size_leaf_vector":"1"}},{"base_weights":[-3.7060037E-2,6.474032E-2,-3.030933E-1,1.2529354E-1,-4.797288E-1,-1.0309193E-1,-1.8750775E-1,9.343314E-2,6.3300887E-3,3.700078E-2,-9.1703594E-2,-5.9477877E-2,5.7384446E-3],"categories":[],"categories_nodes":[],"categories_segments":[],"categories_sizes":[],"default_left":[0,0,0,0,0,0,0,0,0,0,0,0,0],"id":21,"left_children":[1,3,5,7,9,-1,11,-1,-1,-1,-1,-1,-1],"loss_changes":[7.7970862E0,6.9350185E0,6.2430835E0,9.350619E0,7.5936794E0,0E0,6.638674E0,0E0,0E0,0E0,0E0,0E0,0E0],"parents":[2147483647,0,0,1,1,2,2,3,3,4,4,6,6],"right_children":[2,4,6,8,10,-1,12,-1,-1,-1,-1,-1,-1],"split_conditions":[1.2933333E2,2.8E2,7.4E1,1.66E2,1.8333334E1,-1.0309193E-1,1.97E2,9.343314E-2,6.3300887E-3,3.700078E-2,-9.1703594E-2,-5.9477877E-2,5.7384446E-3],"split_indices":[13,65,8,7,26,0,39,0,0,0,0,0,0],"split_type":[0,0,0,0,0,0,0,0,0,0,0,0,0],"sum_hessian":[2.86179E2,2.0752434E2,7.865466E1,1.8744725E2,2.0077091E1,1.0079434E1,6.857523E1,1.313357E1,1.7431367E2,6.6438527E0,1.3433239E1,2.5800062E1,4.277517E1],"tree_param":{"num_deleted":"0","num_feature":"67","num_nodes":"13","size_leaf_vector":"1"}},{"base_weights":[6.910378E-2,1.2920633E-3,4.1937646E-1,-9.520197E-2,4.1936435E-2,7.480629E-2,7.204203E-1,-7.7840257E-3,2.750356E-2,6.009752E-2,-3.358779E-2,1.0968237E-1,2.9765688E-2],"categories":[],"categories_nodes":[],"categories_segments":[],"categories_sizes":[],"default_left":[0,0,0,0,0,0,0,0,0,0,0,0,0],"id":22,"left_children":[1,3,5,-1,7,9,11,-1,-1,-1,-1,-1,-1],"loss_changes":[6.7267323E0,9.009245E0,4.7109365E0,0E0,6.09087E0,4.7920685E0,3.323904E0,0E0,0E0,0E0,0E0,0E0,0E0],"parents":[2147483647,0,0,1,1,2,2,4,4,5,5,6,6],"right_children":[2,4,6,-1,8,10,12,-1,-1,-1,-1,-1,-1],"split_conditions":[2.22E2,1.3333334E0,2.5133333E2,-9.520197E-2,2.64E2,2.1466667E2,1.05E2,-7.7840257E-3,2.750356E-2,6.009752E-2,-3.358779E-2,1.0968237E-1,2.9765688E-2],"split_indices":[66,25,7,0,60,12,40,0,0,0,0,0,0],"split_type":[0,0,0,0,0,0,0,0,0,0,0,0,0],"sum_hessian":[2.8222275E2,2.3728818E2,4.4934574E1,9.060422E0,2.2822775E2,2.1534737E1,2.3399837E1,1.5040227E2,7.782549E1,9.289686E0,1.224505E1,1.2179578E1,1.1220261E1],"tree_param":{"num_deleted":"0","num_feature":"67","num_nodes":"13","size_leaf_vector":"1"}},{"base_weights":[-3.447584E-2,-6.311049E-1,1.1628326E-2,-2.1934079E-2,-1.0013877E-1,4.0481618E-1,-5.7903167E-2,-1.0418737E-2,7.076756E-2,-1.768868E-3,-8.344343E-2],"categories":[],"categories_nodes":[],"categories_segments":[],"categories_sizes":[],"default_left":[0,0,0,0,0,0,0,0,0,0,0],"id":23,"left_children":[1,3,5,-1,-1,7,9,-1,-1,-1,-1],"loss_changes":[7.9708023E0,2.7621307E0,7.397329E0,0E0,0E0,5.885974E0,7.037976E0,0E0,0E0,0E0,0E0],"parents":[2147483647,0,0,1,1,2,2,5,5,6,6],"right_children":[2,4,6,-1,-1,8,10,-1,-1,-1,-1],"split_conditions":[-4.21E2,2.37E2,8E1,-2.1934079E-2,-1.0013877E-1,1.6E1,2.9E1,-1.0418737E-2,7.076756E-2,-1.768868E-3,-8.344343E-2],"split_indices":[66,44,13,0,0,36,58,0,0,0,0],"split_type":[0,0,0,0,0,0,0,0,0,0,0],"sum_hessian":[2.885059E2,1.978476E1,2.6872113E2,9.630221E0,1.0154538E1,3.9655346E1,2.2906578E2,1.4443946E1,2.5211401E1,2.1828174E2,1.078404E1],"tree_param":{"num_deleted":"0","num_feature":"67","num_nodes":"11","size_leaf_vector":"1"}},{"base_weights":[-2.4696177E-2,-9.717453E-2,2.607256E-1,1.9062279E-1,-2.3127495E-1,-5.8438722E-2,3.786028E-1,-2.6163975E-2,3.976643E-2,-6.524556E-2,-1.6084744E-2,6.882724E-2,6.718065E-5],"categories":[],"categories_nodes":[],"categories_segments":[],"categories_sizes":[],"default_left":[0,0,0,0,0,0,0,0,0,0,0,0,0],"id":24,"left_children":[1,3,5,7,9,-1,11,-1,-1,-1,-1,-1,-1],"loss_changes":[6.0723095E0,9.068933E0,6.0224385E0,6.616871E0,4.731637E0,0E0,5.7729564E0,0E0,0E0,0E0,0E0,0E0,0E0],"parents":[2147483647,0,0,1,1,2,2,3,3,4,4,6,6],"right_children":[2,4,6,8,10,-1,12,-1,-1,-1,-1,-1,-1],"split_conditions":[4.19E2,-1.76E2,1.1E1,3.1E2,1.4E1,-5.8438722E-2,2.54E2,-2.6163975E-2,3.976643E-2,-6.524556E-2,-1.6084744E-2,6.882724E-2,6.718065E-5],"split_indices":[54,65,35,59,36,0,39,0,0,0,0,0,0],"split_type":[0,0,0,0,0,0,0,0,0,0,0,0,0],"sum_hessian":[2.913093E2,2.3284222E2,5.8467064E1,7.3875046E1,1.5896716E2,6.8072186E0,5.1659847E1,2.2481972E1,5.1393074E1,2.3794363E1,1.351728E2,2.8792307E1,2.286754E1],"tree_param":{"num_deleted":"0","num_feature":"67","num_nodes":"13","size_leaf_vector":"1"}},{"base_weights":[3.2268073E-2,8.03448E-2,-2.9512176E-3,2.0472726E-1,-9.055867E-2,7.268344E-2,-8.928238E-4,-7.9576366E-2,-3.3180548E-3],"categories":[],"categories_nodes":[],"categories_segments":[],"categories_sizes":[],"default_left":[0,0,0,0,0,0,0,0,0],"id":25,"left_children":[1,-1,3,5,7,-1,-1,-1,-1],"loss_changes":[7.439925E0,0E0,4.940433E0,8.627026E0,7.576631E0,0E0,0E0,0E0,0E0],"parents":[2147483647,0,0,2,2,3,3,4,4],"right_children":[2,-1,4,6,8,-1,-1,-1,-1],"split_conditions":[6.5666664E1,8.03448E-2,1.8666666E1,2.0833333E2,1.4333333E1,7.268344E-2,-8.928238E-4,-7.9576366E-2,-3.3180548E-3],"split_indices":[29,0,21,12,4,0,0,0,0],"split_type":[0,0,0,0,0,0,0,0,0],"sum_hessian":[2.8120908E2,1.1688912E1,2.6952017E2,7.956646E1,1.899537E2,2.3064306E1,5.650215E1,1.3988525E1,1.7596518E2],"tree_param":{"num_deleted":"0","num_feature":"67","num_nodes":"9","size_leaf_vector":"1"}},{"base_weights":[2.4842264E-2,-6.0995914E-2,4.1754356E-1,2.9633867E-2,-4.916517E-1,8.1640047E-1,-9.929246E-3,-4.760216E-3,6.482258E-2,-1.497486E-2,-1.0636922E-1,3.1845916E-2,1.1493747E-1,7.326511E-2,-2.8719045E-2],"categories":[],"categories_nodes":[],"categories_segments":[],"categories_sizes":[],"default_left":[1,0,0,0,0,0,0,0,0,0,0,0,0,0,0],"id":26,"left_children":[1,3,5,7,9,11,13,-1,-1,-1,-1,-1,-1,-1,-1],"loss_changes":[9.554574E0,9.102929E0,8.6754875E0,8.832527E0,7.452626E0,3.6597233E0,5.1557937E0,0E0,0E0,0E0,0E0,0E0,0E0,0E0,0E0],"parents":[2147483647,0,0,1,1,2,2,3,3,4,4,5,5,6,6],"right_children":[2,4,6,8,10,12,14,-1,-1,-1,-1,-1,-1,-1,-1],"split_conditions":[3E0,3.09E2,3.5033334E2,4.18E2,2.2E1,2.11E2,1.9333334E1,-4.760216E-3,6.482258E-2,-1.497486E-2,-1.0636922E-1,3.1845916E-2,1.1493747E-1,7.326511E-2,-2.8719045E-2],"split_indices":[57,39,27,38,53,39,4,0,0,0,0,0,0,0,0],"split_type":[0,0,0,0,0,0,0,0,0,0,0,0,0,0,0],"sum_hessian":[2.8168924E2,2.3185431E2,4.9834938E1,1.9231383E2,3.954048E1,2.5309696E1,2.4525244E1,1.7154663E2,2.0767199E1,2.4899363E1,1.464112E1,1.0169072E1,1.5140624E1,6.2137923E0,1.8311451E1],"tree_param":{"num_deleted":"0","num_feature":"67","num_nodes":"15","size_leaf_vector":"1"}},{"base_weights":[-2.339554E-2,-1.3826528E-1,1.14378095E-1,1.3607126E-1,-2.7493465E-1,1.6552363E-1,-8.093061E-2,4.254291E-2,-3.352101E-2,5.559484E-2,-3.829797E-2,9.53223E-2,1.0564647E-2],"categories":[],"categories_nodes":[],"categories_segments":[],"categories_sizes":[],"default_left":[0,0,0,0,0,0,0,0,0,0,0,0,0],"id":27,"left_children":[1,3,5,7,9,11,-1,-1,-1,-1,-1,-1,-1],"loss_changes":[4.545372E0,5.906288E0,6.149749E0,6.883566E0,8.499796E0,5.8586583E0,0E0,0E0,0E0,0E0,0E0,0E0,0E0],"parents":[2147483647,0,0,1,1,2,2,3,3,4,4,5,5],"right_children":[2,4,6,8,10,12,-1,-1,-1,-1,-1,-1,-1],"split_conditions":[2.41E2,8.5E1,3.24E2,1.22E2,1.41E2,2.46E2,-8.093061E-2,4.254291E-2,-3.352101E-2,5.559484E-2,-3.829797E-2,9.53223E-2,1.0564647E-2],"split_indices":[60,45,12,24,55,60,0,0,0,0,0,0,0],"split_type":[0,0,0,0,0,0,0,0,0,0,0,0,0],"sum_hessian":[2.852095E2,1.5553093E2,1.2967857E2,5.1719234E1,1.0381169E2,1.2348254E2,6.196038E0,3.238109E1,1.9338146E1,1.0569728E1,9.324197E1,8.381649E0,1.1510089E2],"tree_param":{"num_deleted":"0","num_feature":"67","num_nodes":"13","size_leaf_vector":"1"}},{"base_weights":[-4.7807533E-2,5.180903E-1,-8.522644E-2,8.330108E-5,8.294252E-2,-1.9483548E-1,9.929756E-2,7.446261E-3,-3.456072E-2,1.1509497E-3,1.0991473E-1],"categories":[],"categories_nodes":[],"categories_segments":[],"categories_sizes":[],"default_left":[0,0,0,0,0,0,0,0,0,0,0],"id":28,"left_children":[1,3,5,-1,-1,7,9,-1,-1,-1,-1],"loss_changes":[6.193079E0,2.7009177E0,5.5455756E0,0E0,0E0,6.491446E0,8.734479E0,0E0,0E0,0E0,0E0],"parents":[2147483647,0,0,1,1,2,2,5,5,6,6],"right_children":[2,4,6,-1,-1,8,10,-1,-1,-1,-1],"split_conditions":[-4.21E2,3.4833334E2,2.6E1,8.330108E-5,8.294252E-2,1.8333334E1,1.78E2,7.446261E-3,-3.456072E-2,1.1509497E-3,1.0991473E-1],"split_indices":[65,6,52,0,0,20,56,0,0,0,0],"split_type":[0,0,0,0,0,0,0,0,0,0,0],"sum_hessian":[2.8938217E2,1.7151342E1,2.722308E2,6.4886847E0,1.0662659E1,1.7074861E2,1.0148221E2,5.913309E1,1.1161552E2,9.394689E1,7.535318E0],"tree_param":{"num_deleted":"0","num_feature":"67","num_nodes":"11","size_leaf_vector":"1"}},{"base_weights":[-1.6528968E-2,-1.4398837E-1,2.273716E-1,-6.7478323E-1,-7.98038E-2,7.760605E-2,7.9194283E-1,-2.8173523E-2,-1.3999954E-1,4.2857993E-3,-4.1135207E-2,2.8249325E-2,-3.967729E-2,5.066349E-3,1.1571075E-1],"categories":[],"categories_nodes":[],"categories_segments":[],"categories_sizes":[],"default_left":[0,0,0,0,0,0,0,0,0,0,0,0,0,0,0],"id":29,"left_children":[1,3,5,7,9,11,13,-1,-1,-1,-1,-1,-1,-1,-1],"loss_changes":[8.851358E0,6.3143377E0,8.203667E0,5.1335917E0,6.537856E0,7.249309E0,4.9748564E0,0E0,0E0,0E0,0E0,0E0,0E0,0E0,0E0],"parents":[2147483647,0,0,1,1,2,2,3,3,4,4,5,5,6,6],"right_children":[2,4,6,8,10,12,14,-1,-1,-1,-1,-1,-1,-1,-1],"split_conditions":[2.5333334E1,2.47E2,1.39E2,2.0333334E1,2.4E1,4E0,1.29E2,-2.8173523E-2,-1.3999954E-1,4.2857993E-3,-4.1135207E-2,2.8249325E-2,-3.967729E-2,5.066349E-3,1.1571075E-1],"split_indices":[3,59,29,5,58,46,66,0,0,0,0,0,0,0,0],"split_type":[0,0,0,0,0,0,0,0,0,0,0,0,0,0,0],"sum_hessian":[2.8267166E2,1.8592119E2,9.675046E1,1.903036E1,1.6689084E2,7.736505E1,1.9385405E1,1.2887894E1,6.142465E0,1.2159249E2,4.5298344E1,5.45742E1,2.2790852E1,6.3462095E0,1.3039195E1],"tree_param":{"num_deleted":"0","num_feature":"67","num_nodes":"15","size_leaf_vector":"1"}},{"base_weights":[3.0208597E-2,-1.723577E-2,7.2404397E-1,3.4704718E-1,-1.07898936E-1,1.2542509E-1,-1.639762E-2,6.5658516E-3,8.800423E-2,-1.4915166E-2,8.771675E-2],"categories":[],"categories_nodes":[],"categories_segments":[],"categories_sizes":[],"default_left":[0,0,0,1,1,0,0,0,0,0,0],"id":30,"left_children":[1,3,5,7,9,-1,-1,-1,-1,-1,-1],"loss_changes":[9.308952E0,8.799844E0,8.099915E0,7.5867634E0,7.6986976E0,0E0,0E0,0E0,0E0,0E0,0E0],"parents":[2147483647,0,0,1,1,2,2,3,3,4,4],"right_children":[2,4,6,8,10,-1,-1,-1,-1,-1,-1],"split_conditions":[3.56E2,-2.21E2,2.9866666E2,1.3333334E0,3E0,1.2542509E-1,-1.639762E-2,6.5658516E-3,8.800423E-2,-1.4915166E-2,8.771675E-2],"split_indices":[60,65,28,14,25,0,0,0,0,0,0],"split_type":[0,0,0,0,0,0,0,0,0,0,0],"sum_hessian":[2.8140808E2,2.6430975E2,1.7098307E1,5.2108974E1,2.1220079E2,1.0718531E1,6.379776E0,3.417616E1,1.7932817E1,2.0514255E2,7.058237E0],"tree_param":{"num_deleted":"0","num_feature":"67","num_nodes":"11","size_leaf_vector":"1"}},{"base_weights":[2.9810892E-2,5.772271E-2,-7.850157E-2,8.457293E-2,-7.72049E-2,8.0119096E-2,4.4498243E-3],"categories":[],"categories_nodes":[],"categories_segments":[],"categories_sizes":[],"default_left":[0,0,0,0,0,0,0],"id":31,"left_children":[1,3,-1,5,-1,-1,-1],"loss_changes":[6.2708683E0,5.9816337E0,0E0,7.5668197E0,0E0,0E0,0E0],"parents":[2147483647,0,0,1,1,3,3],"right_children":[2,4,-1,6,-1,-1,-1],"split_conditions":[2.33E2,3E1,-7.850157E-2,-4.21E2,-7.72049E-2,8.0119096E-2,4.4498243E-3],"split_indices":[56,58,0,65,0,0,0],"split_type":[0,0,0,0,0,0,0],"sum_hessian":[2.8050754E2,2.7185962E2,8.647929E0,2.6398053E2,7.879099E0,1.3842296E1,2.5013821E2],"tree_param":{"num_deleted":"0","num_feature":"67","num_nodes":"7","size_leaf_vector":"1"}},{"base_weights":[1.2659464E-2,3.85625E-1,-4.4590965E-2,6.261656E-1,-3.6928594E-2,-1.7341541E-1,9.8290905E-2,8.7020725E-2,-1.6066603E-2,-2.6798211E-2,3.652029E-2,4.288378E-2,-5.530539E-3],"categories":[],"categories_nodes":[],"categories_segments":[],"categories_sizes":[],"default_left":[0,0,0,0,0,0,0,0,0,0,0,0,0],"id":32,"left_children":[1,3,5,7,-1,9,11,-1,-1,-1,-1,-1,-1],"loss_changes":[6.20718E0,7.150844E0,4.659481E0,5.2089977E0,0E0,6.1998863E0,5.8404746E0,0E0,0E0,0E0,0E0,0E0,0E0],"parents":[2147483647,0,0,1,1,2,2,3,3,5,5,6,6],"right_children":[2,4,6,8,-1,10,12,-1,-1,-1,-1,-1,-1],"split_conditions":[1.8233333E2,2.9E1,2.41E2,1E0,-3.6928594E-2,2.6E1,2.3866667E2,8.7020725E-2,-1.6066603E-2,-2.6798211E-2,3.652029E-2,4.288378E-2,-5.530539E-3],"split_indices":[23,4,60,1,0,42,28,0,0,0,0,0,0],"split_type":[0,0,0,0,0,0,0,0,0,0,0,0,0],"sum_hessian":[2.8889594E2,3.768117E1,2.5121477E2,2.8598778E1,9.082393E0,1.3199362E2,1.19221146E2,2.2274342E1,6.3244367E0,1.13774796E2,1.8218832E1,3.7969906E1,8.1251236E1],"tree_param":{"num_deleted":"0","num_feature":"67","num_nodes":"13","size_leaf_vector":"1"}},{"base_weights":[-3.919068E-2,-2.0008484E-1,9.23722E-2,-1.15749486E-1,-1.2788163E-1,-6.881412E-2,3.871931E-1,4.420349E-2,-2.2375705E-2,5.1060434E-2,-1.8705595E-2,-2.7758604E-2,5.4820806E-2],"categories":[],"categories_nodes":[],"categories_segments":[],"categories_sizes":[],"default_left":[0,0,0,0,0,0,0,0,0,0,0,0,0],"id":33,"left_children":[1,3,5,-1,7,9,11,-1,-1,-1,-1,-1,-1],"loss_changes":[5.9828763E0,8.338057E0,7.425589E0,0E0,6.0293593E0,6.565159E0,5.414874E0,0E0,0E0,0E0,0E0,0E0,0E0],"parents":[2147483647,0,0,1,1,2,2,4,4,5,5,6,6],"right_children":[2,4,6,-1,8,10,12,-1,-1,-1,-1,-1,-1],"split_conditions":[1E2,1.2E1,2.5E1,-1.15749486E-1,1.65E2,1.7333334E1,1.4E1,4.420349E-2,-2.2375705E-2,5.1060434E-2,-1.8705595E-2,-2.7758604E-2,5.4820806E-2],"split_indices":[56,52,52,0,60,5,36,0,0,0,0,0,0],"split_type":[0,0,0,0,0,0,0,0,0,0,0,0,0],"sum_hessian":[2.8076865E2,1.2607051E2,1.5469812E2,8.077265E0,1.1799325E2,1.0051211E2,5.4186016E1,1.5801759E1,1.0219149E2,1.61794E1,8.433271E1,9.666078E0,4.4519936E1],"tree_param":{"num_deleted":"0","num_feature":"67","num_nodes":"13","size_leaf_vector":"1"}},{"base_weights":[-3.7826058E-2,3.2103908E-1,-9.9866375E-2,5.944855E-1,-4.5395125E-2,1.7088842E-1,-2.2494614E-1,8.794529E-2,8.068966E-3,-8.1263795E-2,3.8873028E-2,-2.5639405E-2,4.718086E-2,6.450982E-2,-2.7434291E-2],"categories":[],"categories_nodes":[],"categories_segments":[],"categories_sizes":[],"default_left":[0,0,0,0,0,0,0,0,0,0,0,0,0,0,0],"id":34,"left_children":[1,3,5,7,9,11,13,-1,-1,-1,-1,-1,-1,-1,-1],"loss_changes":[6.320361E0,4.222198E0,8.219532E0,3.1589813E0,6.223136E0,9.399584E0,6.035074E0,0E0,0E0,0E0,0E0,0E0,0E0,0E0,0E0],"parents":[2147483647,0,0,1,1,2,2,3,3,4,4,5,5,6,6],"right_children":[2,4,6,8,10,12,14,-1,-1,-1,-1,-1,-1,-1,-1],"split_conditions":[-2.71E2,2.0666666E1,1.9333334E1,1.22E2,1.99E2,2.1666667E2,6.5666664E1,8.794529E-2,8.068966E-3,-8.1263795E-2,3.8873028E-2,-2.5639405E-2,4.718086E-2,6.450982E-2,-2.7434291E-2],"split_indices":[65,10,3,40,23,12,29,0,0,0,0,0,0,0,0],"split_type":[0,0,0,0,0,0,0,0,0,0,0,0,0,0,0],"sum_hessian":[2.8144113E2,4.086832E1,2.405728E2,2.3047266E1,1.7821054E1,7.590287E1,1.6466994E2,1.48914585E1,8.1558075E0,6.145568E0,1.1675486E1,3.0898298E1,4.5004574E1,7.011511E0,1.5765842E2],"tree_param":{"num_deleted":"0","num_feature":"67","num_nodes":"15","size_leaf_vector":"1"}},{"base_weights":[2.6273113E-2,1.16533704E-1,-1.8486644E-1,7.2745293E-1,4.8330314E-2,-6.606268E-1,5.8235195E-3,1.0786703E-1,3.4606745E-3,-6.508691E-4,9.706833E-2,-1.11371696E-1,-1.233132E-2,4.366604E-2,-2.6383799E-2],"categories":[],"categories_nodes":[],"categories_segments":[],"categories_sizes":[],"default_left":[0,0,0,0,0,0,0,0,0,0,0,0,0,0,0],"id":35,"left_children":[1,3,5,7,9,11,13,-1,-1,-1,-1,-1,-1,-1,-1],"loss_changes":[5.346783E0,8.146588E0,7.630679E0,4.3344154E0,8.696105E0,5.354231E0,6.8001394E0,0E0,0E0,0E0,0E0,0E0,0E0,0E0,0E0],"parents":[2147483647,0,0,1,1,2,2,3,3,4,4,5,5,6,6],"right_children":[2,4,6,8,10,12,14,-1,-1,-1,-1,-1,-1,-1,-1],"split_conditions":[5E0,1.6333334E1,9.4333336E1,1.29E2,4.87E2,1.14E2,2.2E1,1.0786703E-1,3.4606745E-3,-6.508691E-4,9.706833E-2,-1.11371696E-1,-1.233132E-2,4.366604E-2,-2.6383799E-2],"split_indices":[46,26,29,40,38,24,20,0,0,0,0,0,0,0,0],"split_type":[0,0,0,0,0,0,0,0,0,0,0,0,0,0,0],"sum_hessian":[2.7842896E2,1.9536145E2,8.306749E1,1.8649155E1,1.767123E2,2.3062784E1,6.0004707E1,1.2407227E1,6.2419286E0,1.6747511E2,9.237188E0,1.2400254E1,1.066253E1,2.2875668E1,3.712904E1],"tree_param":{"num_deleted":"0","num_feature":"67","num_nodes":"15","size_leaf_vector":"1"}},{"base_weights":[2.6269502E-3,-4.9064603E-1,4.1132756E-2,-7.6850903E-1,5.603419E-3,1.0039431E-1,-3.470656E-1,-1.0140977E-1,-4.5610342E-2,1.3837046E-2,-6.256536E-2,1.5122173E-2,-6.8629704E-2],"categories":[],"categories_nodes":[],"categories_segments":[],"categories_sizes":[],"default_left":[0,0,1,0,0,0,0,0,0,0,0,0,0],"id":36,"left_children":[1,3,5,7,-1,9,11,-1,-1,-1,-1,-1,-1],"loss_changes":[5.3916726E0,3.1550517E0,6.0908904E0,5.2818394E-1,0E0,5.605997E0,5.639349E0,0E0,0E0,0E0,0E0,0E0,0E0],"parents":[2147483647,0,0,1,1,2,2,3,3,5,5,6,6],"right_children":[2,4,6,8,-1,10,12,-1,-1,-1,-1,-1,-1],"split_conditions":[-4.21E2,4.01E2,2.3333333E0,1.28E2,5.603419E-3,3.3366666E2,3.1E2,-1.0140977E-1,-4.5610342E-2,1.3837046E-2,-6.256536E-2,1.5122173E-2,-6.8629704E-2],"split_indices":[66,22,14,45,0,7,43,0,0,0,0,0,0],"split_type":[0,0,0,0,0,0,0,0,0,0,0,0,0],"sum_hessian":[2.8180124E2,1.955483E1,2.6224643E2,1.2680781E1,6.8740497E0,2.2815773E2,3.4088696E1,6.3941045E0,6.286677E0,2.184684E2,9.689322E0,1.3605894E1,2.0482803E1],"tree_param":{"num_deleted":"0","num_feature":"67","num_nodes":"13","size_leaf_vector":"1"}},{"base_weights":[1.7998265E-2,-7.4117696E-3,7.801457E-2,4.9078524E-2,-3.5101795E-1,9.022542E-2,1.6271432E-3,-1.2250228E-2,-1.3170303E-1],"categories":[],"categories_nodes":[],"categories_segments":[],"categories_sizes":[],"default_left":[0,0,0,0,0,0,0,0,0],"id":37,"left_children":[1,3,-1,5,7,-1,-1,-1,-1],"loss_changes":[5.309439E0,5.330122E0,0E0,6.4819264E0,8.199289E0,0E0,0E0,0E0,0E0],"parents":[2147483647,0,0,1,1,3,3,4,4],"right_children":[2,4,-1,6,8,-1,-1,-1,-1],"split_conditions":[1.84E2,1.4466667E2,7.801457E-2,1.09E2,3.2E1,9.022542E-2,1.6271432E-3,-1.2250228E-2,-1.3170303E-1],"split_indices":[8,8,0,55,51,0,0,0,0],"split_type":[0,0,0,0,0,0,0,0,0],"sum_hessian":[2.8108875E2,2.727136E2,8.3751545E0,2.3494484E2,3.7768745E1,8.101354E0,2.2684349E2,3.1121E1,6.6477466E0],"tree_param":{"num_deleted":"0","num_feature":"67","num_nodes":"9","size_leaf_vector":"1"}},{"base_weights":[-3.8121972E-2,-1.3671605E-1,1.5319647E-1,-4.6575446E-2,-4.7423217E-1,7.32726E-1,-5.3213076E-3,3.5837226E-2,-1.5282223E-2,-6.637929E-2,2.8331967E-2,1.409038E-2,1.0228897E-1,2.1763582E-2,-3.0637665E-2],"categories":[],"categories_nodes":[],"categories_segments":[],"categories_sizes":[],"default_left":[0,0,0,0,0,0,0,0,0,0,0,0,0,0,0],"id":38,"left_children":[1,3,5,7,9,11,13,-1,-1,-1,-1,-1,-1,-1,-1],"loss_changes":[5.348441E0,5.6644754E0,8.870965E0,6.0298543E0,5.202937E0,3.0896187E0,4.9285197E0,0E0,0E0,0E0,0E0,0E0,0E0,0E0,0E0],"parents":[2147483647,0,0,1,1,2,2,3,3,4,4,5,5,6,6],"right_children":[2,4,6,8,10,12,14,-1,-1,-1,-1,-1,-1,-1,-1],"split_conditions":[2.5333334E1,1.3066667E2,8.1666664E1,1.7E2,1.6533333E2,2.4366667E2,2.5766666E2,3.5837226E-2,-1.5282223E-2,-6.637929E-2,2.8331967E-2,1.409038E-2,1.0228897E-1,2.1763582E-2,-3.0637665E-2],"split_indices":[3,8,13,44,8,7,12,0,0,0,0,0,0,0,0],"split_type":[0,0,0,0,0,0,0,0,0,0,0,0,0,0,0],"sum_hessian":[2.8143304E2,1.8591101E2,9.552202E1,1.476232E2,3.828781E1,1.9738207E1,7.578381E1,2.9792122E1,1.17831085E2,3.129998E1,6.9878335E0,6.4776597E0,1.3260547E1,4.367562E1,3.2108192E1],"tree_param":{"num_deleted":"0","num_feature":"67","num_nodes":"15","size_leaf_vector":"1"}},{"base_weights":[9.709089E-7,4.8546535E-1,-4.7399424E-2,1.0484509E-1,7.657061E-2,-1.2104219E-1,3.2527682E-1,-4.059257E-2,6.3928485E-2,-8.5104465E-2,-8.353898E-3,9.214982E-2,1.1491234E-2],"categories":[],"categories_nodes":[],"categories_segments":[],"categories_sizes":[],"default_left":[0,0,0,0,0,0,0,0,0,0,0,0,0],"id":39,"left_children":[1,3,5,-1,7,9,11,-1,-1,-1,-1,-1,-1],"loss_changes":[6.453841E0,5.3607635E0,7.052006E0,0E0,4.1429834E0,5.9587836E0,5.0669627E0,0E0,0E0,0E0,0E0,0E0,0E0],"parents":[2147483647,0,0,1,1,2,2,4,4,5,5,6,6],"right_children":[2,4,6,-1,8,10,12,-1,-1,-1,-1,-1,-1],"split_conditions":[1.41E2,1.9666666E1,3.14E2,1.0484509E-1,1.3E2,1.3333334E0,9.1333336E1,-4.059257E-2,6.3928485E-2,-8.5104465E-2,-8.353898E-3,9.214982E-2,1.1491234E-2],"split_indices":[55,10,55,0,56,14,13,0,0,0,0,0,0],"split_type":[0,0,0,0,0,0,0,0,0,0,0,0,0],"sum_hessian":[2.784652E2,2.394847E1,2.5451674E2,9.747678E0,1.420079E1,2.130852E2,4.1431538E1,7.76272E0,6.438071E0,1.0341302E1,2.027439E2,1.0425352E1,3.1006186E1],"tree_param":{"num_deleted":"0","num_feature":"67","num_nodes":"13","size_leaf_vector":"1"}},{"base_weights":[-4.3988256E-3,-5.4756343E-1,3.6560338E-2,-1.0212051E-1,-3.7008873E-3,1.0296691E-1,1.0002973E-2,2.8959261E-2,-6.713977E-3],"categories":[],"categories_nodes":[],"categories_segments":[],"categories_sizes":[],"default_left":[0,0,0,0,0,0,0,0,0],"id":40,"left_children":[1,3,5,-1,-1,-1,7,-1,-1],"loss_changes":[6.2561684E0,4.4491334E0,6.6856365E0,0E0,0E0,0E0,5.235832E0,0E0,0E0],"parents":[2147483647,0,0,1,1,2,2,6,6],"right_children":[2,4,6,-1,-1,-1,8,-1,-1],"split_conditions":[2.19E2,-1.49E2,1.21E2,-1.0212051E-1,-3.7008873E-3,1.0296691E-1,1.8333334E1,2.8959261E-2,-6.713977E-3],"split_indices":[59,66,60,0,0,0,26,0,0],"split_type":[0,0,0,0,0,0,0,0,0],"sum_hessian":[2.7930704E2,1.8717915E1,2.6058914E2,9.512508E0,9.205405E0,6.0046473E0,2.5458449E2,5.466786E1,1.9991663E2],"tree_param":{"num_deleted":"0","num_feature":"67","num_nodes":"9","size_leaf_vector":"1"}},{"base_weights":[3.7251268E-2,7.1940824E-2,-4.5277512E-1,-1.6872054E-1,1.6457817E-1,-1.3792659E-3,-1.0679106E-1,4.8644904E-2,-3.43209E-2,7.3654786E-2,9.549598E-3],"categories":[],"categories_nodes":[],"categories_segments":[],"categories_sizes":[],"default_left":[1,0,0,0,0,0,0,0,0,0,0],"id":41,"left_children":[1,3,5,7,9,-1,-1,-1,-1,-1,-1],"loss_changes":[4.777884E0,5.8591194E0,4.762857E0,7.889591E0,7.4255433E0,0E0,0E0,0E0,0E0,0E0,0E0],"parents":[2147483647,0,0,1,1,2,2,3,3,4,4],"right_children":[2,4,6,8,10,-1,-1,-1,-1,-1,-1],"split_conditions":[2.6666667E0,1.7E1,1.21666664E2,1.76E2,8E1,-1.3792659E-3,-1.0679106E-1,4.8644904E-2,-3.43209E-2,7.3654786E-2,9.549598E-3],"split_indices":[9,36,29,55,13,0,0,0,0,0,0],"split_type":[0,0,0,0,0,0,0,0,0,0,0],"sum_hessian":[2.7815567E2,2.6056326E2,1.7592396E1,7.219292E1,1.8837035E2,1.0628802E1,6.963594E0,1.43710785E1,5.7821842E1,2.0682625E1,1.6768773E2],"tree_param":{"num_deleted":"0","num_feature":"67","num_nodes":"11","size_leaf_vector":"1"}},{"base_weights":[3.1810187E-2,-7.8563005E-2,5.3765047E-2,1.1253681E-1,-2.3074888E-1,3.068153E-2,-1.6797871E-3,-4.6478685E-2,2.536237E-2],"categories":[],"categories_nodes":[],"categories_segments":[],"categories_sizes":[],"default_left":[0,0,0,0,1,0,0,0,0],"id":42,"left_children":[1,-1,3,5,7,-1,-1,-1,-1],"loss_changes":[4.90646E0,0E0,4.577056E0,5.4141564E0,5.055233E0,0E0,0E0,0E0,0E0],"parents":[2147483647,0,0,2,2,3,3,4,4],"right_children":[2,-1,4,6,8,-1,-1,-1,-1],"split_conditions":[-6.26E2,-7.8563005E-2,3.09E2,3.3733334E2,1.3333334E0,3.068153E-2,-1.6797871E-3,-4.6478685E-2,2.536237E-2],"split_indices":[66,0,39,27,14,0,0,0,0],"split_type":[0,0,0,0,0,0,0,0,0],"sum_hessian":[2.777273E2,6.555603E0,2.711717E2,2.2524709E2,4.592461E1,9.177841E1,1.3346867E2,3.143248E1,1.449213E1],"tree_param":{"num_deleted":"0","num_feature":"67","num_nodes":"9","size_leaf_vector":"1"}},{"base_weights":[-1.6273621E-2,-5.553202E-2,4.1315046E-1,-7.246319E-2,-2.0854635E-2,-2.5117617E-2,7.014798E-1,3.6079664E-2,-8.319912E-3,1.2149139E-1,9.131136E-3],"categories":[],"categories_nodes":[],"categories_segments":[],"categories_sizes":[],"default_left":[0,0,0,0,0,0,0,0,0,0,0],"id":43,"left_children":[1,3,5,-1,7,-1,9,-1,-1,-1,-1],"loss_changes":[4.6932945E0,5.713059E0,4.590626E0,0E0,5.436724E0,0E0,4.727803E0,0E0,0E0,0E0,0E0],"parents":[2147483647,0,0,1,1,2,2,4,4,6,6],"right_children":[2,4,6,-1,8,-1,10,-1,-1,-1,-1],"split_conditions":[4.66E2,1.3333334E0,3.22E2,-7.246319E-2,8E1,-2.5117617E-2,3.5733334E2,3.6079664E-2,-8.319912E-3,1.2149139E-1,9.131136E-3],"split_indices":[54,14,11,0,13,0,6,0,0,0,0],"split_type":[0,0,0,0,0,0,0,0,0,0,0],"sum_hessian":[2.760324E2,2.5370877E2,2.2323639E1,1.1898705E1,2.4181007E2,6.854379E0,1.5469259E1,3.2947887E1,2.0886218E2,8.163534E0,7.3057256E0],"tree_param":{"num_deleted":"0","num_feature":"67","num_nodes":"11","size_leaf_vector":"1"}},{"base_weights":[2.2415131E-2,-7.062674E-4,8.91656E-2,8.563403E-2,-2.493485E-1,-5.7575602E-2,1.3398696E-2,-5.859084E-2,1.8330531E-2],"categories":[],"categories_nodes":[],"categories_segments":[],"categories_sizes":[],"default_left":[0,0,0,0,0,0,0,0,0],"id":44,"left_children":[1,3,-1,5,7,-1,-1,-1,-1],"loss_changes":[5.3098807E0,5.728691E0,0E0,5.7631497E0,9.505468E0,0E0,0E0,0E0,0E0],"parents":[2147483647,0,0,1,1,3,3,4,4],"right_children":[2,4,-1,6,8,-1,-1,-1,-1],"split_conditions":[2.6666666E1,3E1,8.91656E-2,2.19E2,3.8733334E2,-5.7575602E-2,1.3398696E-2,-5.859084E-2,1.8330531E-2],"split_indices":[21,51,0,43,22,0,0,0,0],"split_type":[0,0,0,0,0,0,0,0,0],"sum_hessian":[2.7111295E2,2.6485522E2,6.257739E0,1.9707655E2,6.777867E1,1.1983063E1,1.8509349E2,3.8576897E1,2.9201775E1],"tree_param":{"num_deleted":"0","num_feature":"67","num_nodes":"9","size_leaf_vector":"1"}},{"base_weights":[3.627012E-2,6.696617E-2,-5.041195E-1,1.0280751E-1,-4.6200922E-1,-8.709163E-2,-2.9176334E-3,7.2934735E-3,6.1809007E-2,-2.660104E-3,-1.01395614E-1],"categories":[],"categories_nodes":[],"categories_segments":[],"categories_sizes":[],"default_left":[0,1,0,0,0,0,0,0,0,0,0],"id":45,"left_children":[1,3,5,7,9,-1,-1,-1,-1,-1,-1],"loss_changes":[4.589234E0,4.9910865E0,2.3970368E0,3.8534117E0,3.7911336E0,0E0,0E0,0E0,0E0,0E0,0E0],"parents":[2147483647,0,0,1,1,2,2,3,3,4,4],"right_children":[2,4,6,8,10,-1,-1,-1,-1,-1,-1],"split_conditions":[4.36E2,2.6666667E0,3.65E2,3.64E2,2.1E1,-8.709163E-2,-2.9176334E-3,7.2934735E-3,6.1809007E-2,-2.660104E-3,-1.01395614E-1],"split_indices":[11,9,38,60,5,0,0,0,0,0,0],"split_type":[0,0,0,0,0,0,0,0,0,0,0],"sum_hessian":[2.736276E2,2.59749E2,1.3878588E1,2.4402074E2,1.5728258E1,7.621485E0,6.2571025E0,2.3037447E2,1.3646273E1,9.148978E0,6.5792804E0],"tree_param":{"num_deleted":"0","num_feature":"67","num_nodes":"11","size_leaf_vector":"1"}},{"base_weights":[-5.036933E-2,-7.414477E-2,6.1686195E-2,-3.332193E-2,-5.3368765E-1,-3.683534E-2,2.6255928E-3,-9.9664606E-2,-2.1590637E-3],"categories":[],"categories_nodes":[],"categories_segments":[],"categories_sizes":[],"default_left":[0,0,0,0,0,0,0,0,0],"id":46,"left_children":[1,3,-1,5,7,-1,-1,-1,-1],"loss_changes":[4.348547E0,5.041799E0,0E0,4.7588773E0,4.8677754E0,0E0,0E0,0E0,0E0],"parents":[2147483647,0,0,1,1,3,3,4,4],"right_children":[2,4,-1,6,8,-1,-1,-1,-1],"split_conditions":[2.6666666E1,2.5E1,6.1686195E-2,2.58E2,2.5E1,-3.683534E-2,2.6255928E-3,-9.9664606E-2,-2.1590637E-3],"split_indices":[21,21,0,38,52,0,0,0,0],"split_type":[0,0,0,0,0,0,0,0,0],"sum_hessian":[2.7765036E2,2.687028E2,8.947567E0,2.4776543E2,2.093738E1,3.7240395E1,2.1052502E2,1.0851092E1,1.00862875E1],"tree_param":{"num_deleted":"0","num_feature":"67","num_nodes":"9","size_leaf_vector":"1"}},{"base_weights":[-3.0366935E-2,-3.8383484E-1,2.5229612E-2,-5.588727E-1,4.3237526E-2,-3.495009E-1,7.818574E-2,-9.241847E-2,1.4552505E-3,4.6220202E-2,-5.9875224E-2,-6.6087763E-3,2.3217423E-2],"categories":[],"categories_nodes":[],"categories_segments":[],"categories_sizes":[],"default_left":[0,0,0,1,0,0,0,0,0,0,0,0,0],"id":47,"left_children":[1,3,5,7,-1,9,11,-1,-1,-1,-1,-1,-1],"loss_changes":[5.588152E0,5.6723113E0,4.9134984E0,6.26038E0,0E0,5.9484415E0,4.5590754E0,0E0,0E0,0E0,0E0,0E0,0E0],"parents":[2147483647,0,0,1,1,2,2,3,3,5,5,6,6],"right_children":[2,4,6,8,-1,10,12,-1,-1,-1,-1,-1,-1],"split_conditions":[-2.95E2,2.8E1,1.1E1,1.6666666E0,4.3237526E-2,2.7E2,1E2,-9.241847E-2,1.4552505E-3,4.6220202E-2,-5.9875224E-2,-6.6087763E-3,2.3217423E-2],"split_indices":[66,35,52,9,0,43,56,0,0,0,0,0,0],"split_type":[0,0,0,0,0,0,0,0,0,0,0,0,0],"sum_hessian":[2.8286844E2,3.7642654E1,2.452258E2,3.1162327E1,6.480326E0,2.9670471E1,2.1555533E2,1.922274E1,1.1939587E1,6.473807E0,2.3196665E1,1.0991982E2,1.05635506E2],"tree_param":{"num_deleted":"0","num_feature":"67","num_nodes":"13","size_leaf_vector":"1"}},{"base_weights":[5.178825E-2,-1.821252E-2,3.347672E-1,6.0868856E-2,-4.607883E-1,4.6280017E-1,-4.349194E-2,6.1987876E-4,8.517339E-2,-7.049276E-2,3.962849E-2,1.287871E-2,9.126063E-2],"categories":[],"categories_nodes":[],"categories_segments":[],"categories_sizes":[],"default_left":[0,0,0,0,0,0,0,0,0,0,0,0,0],"id":48,"left_children":[1,3,5,7,9,11,-1,-1,-1,-1,-1,-1,-1],"loss_changes":[5.517312E0,7.867747E0,5.550355E0,8.022592E0,6.7213273E0,6.718317E0,0E0,0E0,0E0,0E0,0E0,0E0,0E0],"parents":[2147483647,0,0,1,1,2,2,3,3,4,4,5,5],"right_children":[2,4,6,8,10,12,-1,-1,-1,-1,-1,-1,-1],"split_conditions":[4.19E2,2.8666666E1,2.11E2,2.5E1,2.7866666E2,1.39E2,-4.349194E-2,6.1987876E-4,8.517339E-2,-7.049276E-2,3.962849E-2,1.287871E-2,9.126063E-2],"split_indices":[54,19,56,26,12,56,0,0,0,0,0,0,0],"split_type":[0,0,0,0,0,0,0,0,0,0,0,0,0],"sum_hessian":[2.772213E2,2.2299458E2,5.422674E1,1.8992111E2,3.3073467E1,4.6717426E1,7.5093184E0,1.7818134E2,1.1739781E1,2.6296926E1,6.7765417E0,2.6722237E1,1.999519E1],"tree_param":{"num_deleted":"0","num_feature":"67","num_nodes":"13","size_leaf_vector":"1"}},{"base_weights":[4.3827508E-2,1.9102437E-2,6.36893E-2,5.139811E-2,-5.061394E-1,-6.6864625E-2,7.5858496E-3,-1.0381501E-1,2.0254483E-2],"categories":[],"categories_nodes":[],"categories_segments":[],"categories_sizes":[],"default_left":[0,0,0,0,0,0,0,0,0],"id":49,"left_children":[1,3,-1,5,7,-1,-1,-1,-1],"loss_changes":[3.9198222E0,4.541658E0,0E0,3.9827034E0,5.677251E0,0E0,0E0,0E0,0E0],"parents":[2147483647,0,0,1,1,3,3,4,4],"right_children":[2,4,-1,6,8,-1,-1,-1,-1],"split_conditions":[2.22E2,1.9E2,6.36893E-2,1.4333333E1,2.57E2,-6.6864625E-2,7.5858496E-3,-1.0381501E-1,2.0254483E-2],"split_indices":[61,61,0,21,55,0,0,0,0],"split_type":[0,0,0,0,0,0,0,0,0],"sum_hessian":[2.7557672E2,2.6520486E2,1.0371851E1,2.5069261E2,1.4512254E1,6.8620877E0,2.4383054E2,8.209236E0,6.303018E0],"tree_param":{"num_deleted":"0","num_feature":"67","num_nodes":"9","size_leaf_vector":"1"}},{"base_weights":[2.3610659E-2,1.783766E-1,-7.0737E-2,2.4898344E-1,-5.489814E-2,-2.3022566E-2,-5.7364863E-1,5.771152E-2,8.188936E-3,-6.6704447E-3,7.857521E-2,-2.0953594E-3,-9.853337E-2],"categories":[],"categories_nodes":[],"categories_segments":[],"categories_sizes":[],"default_left":[0,0,0,0,0,0,0,0,0,0,0,0,0],"id":50,"left_children":[1,3,5,7,-1,9,11,-1,-1,-1,-1,-1,-1],"loss_changes":[4.0490985E0,5.4083734E0,4.1251006E0,5.0351E0,0E0,5.2593904E0,3.1437736E0,0E0,0E0,0E0,0E0,0E0,0E0],"parents":[2147483647,0,0,1,1,2,2,3,3,5,5,6,6],"right_children":[2,4,6,8,-1,10,12,-1,-1,-1,-1,-1,-1],"split_conditions":[9.9666664E1,2.8E1,3.2333332E1,2.16E2,-5.489814E-2,3.1E1,2.4866667E2,5.771152E-2,8.188936E-3,-6.6704447E-3,7.857521E-2,-2.0953594E-3,-9.853337E-2],"split_indices":[8,58,19,39,0,19,28,0,0,0,0,0,0],"split_type":[0,0,0,0,0,0,0,0,0,0,0,0,0],"sum_hessian":[2.7543716E2,1.0397996E2,1.714572E2,9.5187164E1,8.792791E0,1.5755476E2,1.3902445E1,3.2705917E1,6.2481243E1,1.5047725E2,7.0775166E0,6.123745E0,7.7786994E0],"tree_param":{"num_deleted":"0","num_feature":"67","num_nodes":"13","size_leaf_vector":"1"}},{"base_weights":[4.3120153E-2,2.1199932E-2,8.857675E-2,-7.5364284E-2,4.2081397E-2,1.3950893E-3,5.633655E-2],"categories":[],"categories_nodes":[],"categories_segments":[],"categories_sizes":[],"default_left":[0,0,0,0,0,0,0],"id":51,"left_children":[1,3,-1,-1,5,-1,-1],"loss_changes":[4.954675E0,4.299029E0,0E0,0E0,3.8112738E0,0E0,0E0],"parents":[2147483647,0,0,1,1,4,4],"right_children":[2,4,-1,-1,6,-1,-1],"split_conditions":[1.8666667E2,-6.26E2,8.857675E-2,-7.5364284E-2,3.65E2,1.3950893E-3,5.633655E-2],"split_indices":[8,66,0,0,60,0,0],"split_type":[0,0,0,0,0,0,0],"sum_hessian":[2.765318E2,2.7030917E2,6.222629E0,6.3713164E0,2.6393787E2,2.5080371E2,1.3134155E1],"tree_param":{"num_deleted":"0","num_feature":"67","num_nodes":"7","size_leaf_vector":"1"}},{"base_weights":[2.3575928E-2,-3.686632E-2,2.7510396E-1,1.2462323E-2,-4.0265098E-1,-2.608105E-1,5.4346925E-1,6.986227E-3,-4.2037424E-2,-8.093554E-3,-1.0035382E-1,2.2527555E-2,-7.023248E-2,1.1958471E-2,9.1144666E-2],"categories":[],"categories_nodes":[],"categories_segments":[],"categories_sizes":[],"default_left":[0,0,0,0,0,0,0,0,0,0,0,0,0,0,0],"id":52,"left_children":[1,3,5,7,9,11,13,-1,-1,-1,-1,-1,-1,-1,-1],"loss_changes":[4.19448E0,4.0249615E0,7.827918E0,4.6286335E0,4.8384366E0,3.8915567E0,5.1488895E0,0E0,0E0,0E0,0E0,0E0,0E0,0E0,0E0],"parents":[2147483647,0,0,1,1,2,2,3,3,4,4,5,5,6,6],"right_children":[2,4,6,8,10,12,14,-1,-1,-1,-1,-1,-1,-1,-1],"split_conditions":[2.3333334E1,2.81E2,2.1633333E2,2.2333334E1,4E0,2.1E1,9.8E1,6.986227E-3,-4.2037424E-2,-8.093554E-3,-1.0035382E-1,2.2527555E-2,-7.023248E-2,1.1958471E-2,9.1144666E-2],"split_indices":[5,65,23,5,41,42,56,0,0,0,0,0,0,0,0],"split_type":[0,0,0,0,0,0,0,0,0,0,0,0,0,0,0],"sum_hessian":[2.7423254E2,2.2178981E2,5.2442715E1,1.962853E2,2.5504526E1,1.7508036E1,3.493468E1,1.7419032E2,2.2094973E1,1.7011127E1,8.493399E0,8.414043E0,9.093993E0,1.6127293E1,1.8807386E1],"tree_param":{"num_deleted":"0","num_feature":"67","num_nodes":"15","size_leaf_vector":"1"}},{"base_weights":[8.063649E-3,-3.0113969E-2,4.704265E-1,-7.057319E-2,5.1508635E-1,8.0059284E-1,-1.5835756E-2,-2.4838438E-3,-5.350507E-2,9.740073E-2,8.926305E-3,2.6478935E-2,1.2143782E-1],"categories":[],"categories_nodes":[],"categories_segments":[],"categories_sizes":[],"default_left":[0,0,0,0,0,0,0,0,0,0,0,0,0],"id":53,"left_children":[1,3,5,7,9,11,-1,-1,-1,-1,-1,-1,-1],"loss_changes":[4.891785E0,5.687408E0,4.47963E0,4.9815946E0,3.2092175E0,2.5781937E0,0E0,0E0,0E0,0E0,0E0,0E0,0E0],"parents":[2147483647,0,0,1,1,2,2,3,3,4,4,5,5],"right_children":[2,4,6,8,10,12,-1,-1,-1,-1,-1,-1,-1],"split_conditions":[4.66E2,2.5E1,2.6E1,1.5133333E2,4.1E2,8.8E1,-1.5835756E-2,-2.4838438E-3,-5.350507E-2,9.740073E-2,8.926305E-3,2.6478935E-2,1.2143782E-1],"split_indices":[54,26,20,13,59,61,0,0,0,0,0,0,0],"split_type":[0,0,0,0,0,0,0,0,0,0,0,0,0],"sum_hessian":[2.7532242E2,2.5518636E2,2.0136044E1,2.3836769E2,1.6818668E1,1.2985739E1,7.150305E0,2.1698978E2,2.137792E1,7.7790685E0,9.0396E0,6.0277166E0,6.958022E0],"tree_param":{"num_deleted":"0","num_feature":"67","num_nodes":"13","size_leaf_vector":"1"}},{"base_weights":[-2.7610648E-2,-7.509007E-2,5.6174207E-3,-7.961384E-2,2.9076602E-2,-4.1337796E-2,7.676206E-3],"categories":[],"categories_nodes":[],"categories_segments":[],"categories_sizes":[],"default_left":[0,0,0,0,0,0,0],"id":54,"left_children":[1,-1,3,-1,5,-1,-1],"loss_changes":[6.470669E0,0E0,4.8789997E0,0E0,5.1037936E0,0E0,0E0],"parents":[2147483647,0,0,2,2,4,4],"right_children":[2,-1,4,-1,6,-1,-1],"split_conditions":[4.3E1,-7.509007E-2,1.4333333E1,-7.961384E-2,1.4E1,-4.1337796E-2,7.676206E-3],"split_indices":[40,0,21,0,42,0,0],"split_type":[0,0,0,0,0,0,0],"sum_hessian":[2.7625726E2,1.1539479E1,2.647178E2,6.8033285E0,2.5791446E2,2.3896276E1,2.3401819E2],"tree_param":{"num_deleted":"0","num_feature":"67","num_nodes":"7","size_leaf_vector":"1"}},{"base_weights":[-1.3919419E-2,-4.9525145E-2,4.5586836E-1,9.581375E-4,-6.041199E-1,7.3955017E-3,9.807685E-2,-6.389409E-2,4.249706E-3,2.3554841E-2,-9.8097496E-2],"categories":[],"categories_nodes":[],"categories_segments":[],"categories_sizes":[],"default_left":[0,0,0,0,0,0,0,0,0,0,0],"id":55,"left_children":[1,3,5,7,9,-1,-1,-1,-1,-1,-1],"loss_changes":[4.690755E0,7.2889194E0,3.7026558E0,6.0331364E0,6.5311975E0,0E0,0E0,0E0,0E0,0E0,0E0],"parents":[2147483647,0,0,1,1,2,2,3,3,4,4],"right_children":[2,4,6,8,10,-1,-1,-1,-1,-1,-1],"split_conditions":[1.6533333E2,1.4833333E2,3.6566666E2,1.6933333E2,-1.91E2,7.3955017E-3,9.807685E-2,-6.389409E-2,4.249706E-3,2.3554841E-2,-9.8097496E-2],"split_indices":[8,8,22,12,65,0,0,0,0,0,0],"split_type":[0,0,0,0,0,0,0,0,0,0,0],"sum_hessian":[2.7807812E2,2.5931866E2,1.8759466E1,2.38598E2,2.0720669E1,1.1228114E1,7.531351E0,1.3657848E1,2.2494016E2,6.2190084E0,1.450166E1],"tree_param":{"num_deleted":"0","num_feature":"67","num_nodes":"11","size_leaf_vector":"1"}},{"base_weights":[-5.67729E-2,1.2320222E-2,-2.2346199E-1,4.8230776E-1,-3.6152247E-2,-4.2581955E-1,1.7453353E-1,9.196133E-2,-2.9594688E-2,6.6200052E-3,-2.7754322E-2,-6.9868185E-2,-5.7561654E-3,-2.1642217E-2,9.691103E-2],"categories":[],"categories_nodes":[],"categories_segments":[],"categories_sizes":[],"default_left":[0,0,0,0,0,0,0,0,0,0,0,0,0,0,0],"id":56,"left_children":[1,3,5,7,9,11,13,-1,-1,-1,-1,-1,-1,-1,-1],"loss_changes":[3.2259777E0,4.546429E0,6.6834865E0,6.1616373E0,4.266727E0,5.0799675E0,8.570934E0,0E0,0E0,0E0,0E0,0E0,0E0,0E0,0E0],"parents":[2147483647,0,0,1,1,2,2,3,3,4,4,5,5,6,6],"right_children":[2,4,6,8,10,12,14,-1,-1,-1,-1,-1,-1,-1,-1],"split_conditions":[5E0,1.6333334E1,1.3E2,2.7E1,2.8E1,1.29E2,2.7E2,9.196133E-2,-2.9594688E-2,6.6200052E-3,-2.7754322E-2,-6.9868185E-2,-5.7561654E-3,-2.1642217E-2,9.691103E-2],"split_indices":[41,26,56,4,51,40,60,0,0,0,0,0,0,0,0],"split_type":[0,0,0,0,0,0,0,0,0,0,0,0,0,0,0],"sum_hessian":[2.7886502E2,1.978017E2,8.106331E1,1.7656332E1,1.8014537E2,5.3693417E1,2.736989E1,1.1404929E1,6.251403E0,1.2645716E2,5.368821E1,3.1390219E1,2.2303196E1,1.8709375E1,8.660516E0],"tree_param":{"num_deleted":"0","num_feature":"67","num_nodes":"15","size_leaf_vector":"1"}},{"base_weights":[4.9488605E-3,-5.5321556E-2,3.4604466E-1,9.669601E-2,-1.8585174E-1,6.3920796E-1,-2.864269E-2,-2.4033517E-2,2.5614718E-2,-3.8637444E-2,5.5769756E-3,3.0868052E-2,1.0504408E-1,-6.6649035E-2,4.1836888E-2],"categories":[],"categories_nodes":[],"categories_segments":[],"categories_sizes":[],"default_left":[0,0,0,0,0,0,0,0,0,0,0,0,0,0,0],"id":57,"left_children":[1,3,5,7,9,11,13,-1,-1,-1,-1,-1,-1,-1,-1],"loss_changes":[5.500932E0,4.5316553E0,4.4317374E0,5.37089E0,5.603519E0,2.61621E0,5.27017E0,0E0,0E0,0E0,0E0,0E0,0E0,0E0,0E0],"parents":[2147483647,0,0,1,1,2,2,3,3,4,4,5,5,6,6],"right_children":[2,4,6,8,10,12,14,-1,-1,-1,-1,-1,-1,-1,-1],"split_conditions":[2.22E2,3.4266666E2,1.12E2,2.6666667E0,3.8833334E2,2.4633333E2,2.89E2,-2.4033517E-2,2.5614718E-2,-3.8637444E-2,5.5769756E-3,3.0868052E-2,1.0504408E-1,-6.6649035E-2,4.1836888E-2],"split_indices":[66,27,45,25,27,12,54,0,0,0,0,0,0,0,0],"split_type":[0,0,0,0,0,0,0,0,0,0,0,0,0,0,0],"sum_hessian":[2.656501E2,2.2647122E2,3.917885E1,1.0474394E2,1.2172729E2,2.1584614E1,1.7594234E1,3.2873478E1,7.187046E1,6.770507E1,5.4022217E1,1.2366909E1,9.217705E0,7.0617E0,1.0532534E1],"tree_param":{"num_deleted":"0","num_feature":"67","num_nodes":"15","size_leaf_vector":"1"}},{"base_weights":[-3.5083357E-2,-6.0276777E-2,6.531705E-2,-2.5855765E-2,-6.5010184E-1,4.084421E-3,-3.20412E-2,-1.6607378E-2,-1.0507537E-1],"categories":[],"categories_nodes":[],"categories_segments":[],"categories_sizes":[],"default_left":[0,0,0,1,0,0,0,0,0],"id":58,"left_children":[1,3,-1,5,7,-1,-1,-1,-1],"loss_changes":[4.651893E0,5.3524094E0,0E0,4.706283E0,2.4701815E0,0E0,0E0,0E0,0E0],"parents":[2147483647,0,0,1,1,3,3,4,4],"right_children":[2,4,-1,6,8,-1,-1,-1,-1],"split_conditions":[2.22E2,1.9E2,6.531705E-2,3E0,2.1E2,4.084421E-3,-3.20412E-2,-1.6607378E-2,-1.0507537E-1],"split_indices":[61,61,0,62,60,0,0,0,0],"split_type":[0,0,0,0,0,0,0,0,0],"sum_hessian":[2.7246432E2,2.634626E2,9.001749E0,2.499215E2,1.3541082E1,2.039538E2,4.5967693E1,6.460008E0,7.081074E0],"tree_param":{"num_deleted":"0","num_feature":"67","num_nodes":"9","size_leaf_vector":"1"}},{"base_weights":[-3.8244538E-2,6.868256E-2,-6.1429705E-2,-8.104281E-2,-4.0834762E-2,3.9570676E-3,-2.3793926E-2],"categories":[],"categories_nodes":[],"categories_segments":[],"categories_sizes":[],"default_left":[0,0,0,0,0,0,0],"id":59,"left_children":[1,-1,3,-1,5,-1,-1],"loss_changes":[4.6221833E0,0E0,4.035429E0,0E0,4.0169015E0,0E0,0E0],"parents":[2147483647,0,0,2,2,4,4],"right_children":[2,-1,4,-1,6,-1,-1],"split_conditions":[1.4633333E2,6.868256E-2,6E0,-8.104281E-2,5E0,3.9570676E-3,-2.3793926E-2],"split_indices":[23,0,51,0,46,0,0],"split_type":[0,0,0,0,0,0,0],"sum_hessian":[2.7906464E2,7.995085E0,2.7106955E2,6.451073E0,2.6461847E2,1.873708E2,7.7247665E1],"tree_param":{"num_deleted":"0","num_feature":"67","num_nodes":"7","size_leaf_vector":"1"}},{"base_weights":[2.3177583E-2,-2.2154665E-2,4.2668784E-1,1.3783819E-2,-6.212647E-1,-2.2513364E-2,6.736396E-1,3.439991E-2,-3.9724237E-3,-9.772896E-2,-1.7648425E-2,1.1651784E-1,2.4092292E-2],"categories":[],"categories_nodes":[],"categories_segments":[],"categories_sizes":[],"default_left":[0,0,0,0,0,0,0,0,0,0,0,0,0],"id":60,"left_children":[1,3,5,7,9,-1,11,-1,-1,-1,-1,-1,-1],"loss_changes":[5.093718E0,5.4091687E0,4.629559E0,4.0007286E0,1.9359746E0,0E0,3.882596E0,0E0,0E0,0E0,0E0,0E0,0E0],"parents":[2147483647,0,0,1,1,2,2,3,3,4,4,6,6],"right_children":[2,4,6,8,10,-1,12,-1,-1,-1,-1,-1,-1],"split_conditions":[1.88E2,2.9E1,2.0133333E2,2.9066666E2,2.4666667E2,-2.2513364E-2,2.2466667E2,3.439991E-2,-3.9724237E-3,-9.772896E-2,-1.7648425E-2,1.1651784E-1,2.4092292E-2],"split_indices":[40,58,23,22,23,0,12,0,0,0,0,0,0],"split_type":[0,0,0,0,0,0,0,0,0,0,0,0,0],"sum_hessian":[2.769498E2,2.4982803E2,2.7121765E1,2.3661154E2,1.3216494E1,7.5372643E0,1.9584501E1,3.2487167E1,2.0412437E2,6.9988074E0,6.2176857E0,8.816092E0,1.076841E1],"tree_param":{"num_deleted":"0","num_feature":"67","num_nodes":"13","size_leaf_vector":"1"}},{"base_weights":[-5.107675E-2,3.0416968E-1,-1.122614E-1,1.1488041E-1,1.2749194E-1,-2.1931311E-1,1.2074714E-1,4.2107325E-2,-4.9497988E-2,6.2943758E-3,-3.5342418E-2,5.365746E-2,-1.9138902E-2],"categories":[],"categories_nodes":[],"categories_segments":[],"categories_sizes":[],"default_left":[0,0,0,0,0,0,0,0,0,0,0,0,0],"id":61,"left_children":[1,3,5,-1,7,9,11,-1,-1,-1,-1,-1,-1],"loss_changes":[5.9987063E0,5.680125E0,5.883969E0,0E0,6.1009703E0,5.631488E0,9.257366E0,0E0,0E0,0E0,0E0,0E0,0E0],"parents":[2147483647,0,0,1,1,2,2,4,4,5,5,6,6],"right_children":[2,4,6,-1,8,10,12,-1,-1,-1,-1,-1,-1],"split_conditions":[2.65E2,1.9666667E2,2.7E2,1.1488041E-1,1.3633333E2,1.9666666E1,3.07E2,4.2107325E-2,-4.9497988E-2,6.2943758E-3,-3.5342418E-2,5.365746E-2,-1.9138902E-2],"split_indices":[54,28,60,0,29,3,60,0,0,0,0,0,0],"split_type":[0,0,0,0,0,0,0,0,0,0,0,0,0],"sum_hessian":[2.73414E2,3.9588192E1,2.338258E2,6.1246586E0,3.3463535E1,1.602572E2,7.356861E1,2.3099348E1,1.0364186E1,4.930095E1,1.1095625E2,3.159879E1,4.196982E1],"tree_param":{"num_deleted":"0","num_feature":"67","num_nodes":"13","size_leaf_vector":"1"}},{"base_weights":[1.1565745E-2,-2.4765635E-1,7.2143584E-2,3.6771826E-2,-3.986281E-1,-2.5845034E-4,4.649295E-1,3.7098307E-2,-5.6438543E-2,4.2864033E-3,-9.429791E-2,1.5269949E-2,9.2884205E-2],"categories":[],"categories_nodes":[],"categories_segments":[],"categories_sizes":[],"default_left":[0,0,0,0,0,0,0,0,0,0,0,0,0],"id":62,"left_children":[1,3,5,-1,7,9,11,-1,-1,-1,-1,-1,-1],"loss_changes":[4.2830334E0,4.8616385E0,6.2832417E0,0E0,4.9502354E0,7.235876E0,4.628569E0,0E0,0E0,0E0,0E0,0E0,0E0],"parents":[2147483647,0,0,1,1,2,2,4,4,5,5,6,6],"right_children":[2,4,6,-1,8,10,12,-1,-1,-1,-1,-1,-1],"split_conditions":[1.4E1,2.89E2,3.14E2,3.6771826E-2,8.7666664E1,3.08E2,1.01E2,3.7098307E-2,-5.6438543E-2,4.2864033E-3,-9.429791E-2,1.5269949E-2,9.2884205E-2],"split_indices":[36,54,55,0,8,55,56,0,0,0,0,0,0],"split_type":[0,0,0,0,0,0,0,0,0,0,0,0,0],"sum_hessian":[2.706128E2,5.067562E1,2.1993716E2,9.848528E0,4.082709E1,1.8654987E2,3.3387302E1,6.4933653E0,3.4333725E1,1.7930118E2,7.2486763E0,2.0147093E1,1.324021E1],"tree_param":{"num_deleted":"0","num_feature":"67","num_nodes":"13","size_leaf_vector":"1"}},{"base_weights":[1.109226E-2,-5.636737E-1,4.482216E-2,-9.869438E-2,-1.4657507E-2,7.812045E-2,-3.8157806E-1,1.8546993E-3,4.9059015E-2,-8.879972E-2,6.393197E-3],"categories":[],"categories_nodes":[],"categories_segments":[],"categories_sizes":[],"default_left":[0,0,0,0,0,0,0,0,0,0,0],"id":63,"left_children":[1,3,5,-1,-1,7,9,-1,-1,-1,-1],"loss_changes":[5.236278E0,2.3561573E0,3.6478252E0,0E0,0E0,5.6723127E0,4.030219E0,0E0,0E0,0E0,0E0],"parents":[2147483647,0,0,1,1,2,2,5,5,6,6],"right_children":[2,4,6,-1,-1,8,10,-1,-1,-1,-1],"split_conditions":[-4.51E2,2.5866666E2,4.75E2,-9.869438E-2,-1.4657507E-2,4.25E2,2.3966667E2,1.8546993E-3,4.9059015E-2,-8.879972E-2,6.393197E-3],"split_indices":[66,23,38,0,0,38,23,0,0,0,0],"split_type":[0,0,0,0,0,0,0,0,0,0,0],"sum_hessian":[2.6779184E2,1.3973223E1,2.538186E2,6.5514464E0,7.421776E0,2.3619087E2,1.7627739E1,2.0614586E2,3.0045008E1,8.003837E0,9.623902E0],"tree_param":{"num_deleted":"0","num_feature":"67","num_nodes":"11","size_leaf_vector":"1"}},{"base_weights":[7.4121994E-3,5.1094364E-2,-3.0225983E-1,1.3509552E-1,-1.8679696E-1,-1.1373313E-1,8.674369E-3,1.2930955E-3,4.1139208E-2,-4.5092132E-2,4.6936844E-2,5.4120757E-2,-3.8755734E-2],"categories":[],"categories_nodes":[],"categories_segments":[],"categories_sizes":[],"default_left":[0,0,0,0,0,0,0,0,0,0,0,0,0],"id":64,"left_children":[1,3,5,7,9,-1,11,-1,-1,-1,-1,-1,-1],"loss_changes":[3.682769E0,4.7902007E0,8.41054E0,5.7270546E0,1.0318933E1,0E0,5.228479E0,0E0,0E0,0E0,0E0,0E0,0E0],"parents":[2147483647,0,0,1,1,2,2,3,3,4,4,6,6],"right_children":[2,4,6,8,10,-1,12,-1,-1,-1,-1,-1,-1],"split_conditions":[3E1,6E0,3.6E2,2.6E1,2.79E2,-1.1373313E-1,4.2E2,1.2930955E-3,4.1139208E-2,-4.5092132E-2,4.6936844E-2,5.4120757E-2,-3.8755734E-2],"split_indices":[20,41,59,52,60,0,59,0,0,0,0,0,0],"split_type":[0,0,0,0,0,0,0,0,0,0,0,0,0],"sum_hessian":[2.701086E2,2.3744917E2,3.2659443E1,1.7580371E2,6.164546E1,8.405734E0,2.4253708E1,1.2087359E2,5.4930122E1,4.4548676E1,1.7096783E1,1.0197984E1,1.4055724E1],"tree_param":{"num_deleted":"0","num_feature":"67","num_nodes":"13","size_leaf_vector":"1"}},{"base_weights":[-1.9038733E-2,-3.5452098E-1,3.0324241E-2,-9.9916E-2,-8.826011E-2,1.1034483E-1,-3.2303938E-1,4.929413E-2,-4.3392465E-2,-4.882571E-3,2.720369E-2,-7.775647E-2,1.602058E-2],"categories":[],"categories_nodes":[],"categories_segments":[],"categories_sizes":[],"default_left":[0,0,0,0,0,0,0,0,0,0,0,0,0],"id":65,"left_children":[1,3,5,-1,7,9,11,-1,-1,-1,-1,-1,-1],"loss_changes":[4.5429597E0,5.6867366E0,6.80769E0,0E0,5.0541654E0,4.773898E0,9.323088E0,0E0,0E0,0E0,0E0,0E0,0E0],"parents":[2147483647,0,0,1,1,2,2,4,4,5,5,6,6],"right_children":[2,4,6,-1,8,10,12,-1,-1,-1,-1,-1,-1],"split_conditions":[-2.95E2,2.3E1,3.09E2,-9.9916E-2,2.7333334E1,2.2466667E2,1.06E2,4.929413E-2,-4.3392465E-2,-4.882571E-3,2.720369E-2,-7.775647E-2,1.602058E-2],"split_indices":[66,19,39,0,19,7,61,0,0,0,0,0,0],"split_type":[0,0,0,0,0,0,0,0,0,0,0,0,0],"sum_hessian":[2.726775E2,3.4182613E1,2.3849489E2,9.515469E0,2.4667143E1,1.9501964E2,4.347524E1,8.96884E0,1.5698303E1,9.665296E1,9.8366684E1,2.253834E1,2.0936897E1],"tree_param":{"num_deleted":"0","num_feature":"67","num_nodes":"13","size_leaf_vector":"1"}},{"base_weights":[1.4353879E-2,6.589255E-2,-1.6733702E-2,8.25737E-2,-2.1741632E-1,1.4591714E-2,-3.4553826E-2,8.8068314E-2,-3.2574594E-2],"categories":[],"categories_nodes":[],"categories_segments":[],"categories_sizes":[],"default_left":[0,0,0,0,0,0,0,0,0],"id":66,"left_children":[1,-1,3,5,7,-1,-1,-1,-1],"loss_changes":[5.347769E0,0E0,5.2457714E0,4.410098E0,9.53014E0,0E0,0E0,0E0,0E0],"parents":[2147483647,0,0,2,2,3,3,4,4],"right_children":[2,-1,4,6,8,-1,-1,-1,-1],"split_conditions":[6.5666664E1,6.589255E-2,2.5766666E2,1.53E2,1.7E2,1.4591714E-2,-3.4553826E-2,8.8068314E-2,-3.2574594E-2],"split_indices":[29,0,12,24,7,0,0,0,0],"split_type":[0,0,0,0,0,0,0,0,0],"sum_hessian":[2.7332645E2,1.2007798E1,2.6131863E2,1.7520656E2,8.611208E1,1.5406583E2,2.1140728E1,6.632193E0,7.94799E1],"tree_param":{"num_deleted":"0","num_feature":"67","num_nodes":"9","size_leaf_vector":"1"}},{"base_weights":[2.3619965E-2,4.481439E-2,-6.7413844E-2,1.8345027E-3,5.2400064E-1,2.747412E-2,-6.1668823E-3,-3.0911857E-2,9.817388E-2],"categories":[],"categories_nodes":[],"categories_segments":[],"categories_sizes":[],"default_left":[0,0,0,0,0,0,0,0,0],"id":67,"left_children":[1,3,-1,5,7,-1,-1,-1,-1],"loss_changes":[3.8980393E0,5.3906054E0,0E0,3.9647708E0,7.9193325E0,0E0,0E0,0E0,0E0],"parents":[2147483647,0,0,1,1,3,3,4,4],"right_children":[2,4,-1,6,8,-1,-1,-1,-1],"split_conditions":[2.33E2,1.8E2,-6.7413844E-2,1.7666666E1,1.8E1,2.747412E-2,-6.1668823E-3,-3.0911857E-2,9.817388E-2],"split_indices":[56,56,0,10,37,0,0,0,0],"split_type":[0,0,0,0,0,0,0,0,0],"sum_hessian":[2.6799677E2,2.6078537E2,7.2113934E0,2.4024112E2,2.0544237E1,4.4760372E1,1.9548074E2,7.143908E0,1.340033E1],"tree_param":{"num_deleted":"0","num_feature":"67","num_nodes":"9","size_leaf_vector":"1"}},{"base_weights":[1.4571736E-2,-3.1955585E-2,3.869046E-1,-3.279323E-1,2.2045527E-2,1.24483794E-1,8.4534846E-2,1.1782712E-2,-6.839088E-2,3.973368E-2,-8.175839E-3,-2.5565377E-2,5.7455096E-2],"categories":[],"categories_nodes":[],"categories_segments":[],"categories_sizes":[],"default_left":[0,0,0,0,0,0,0,0,0,0,0,0,0],"id":68,"left_children":[1,3,5,7,9,11,-1,-1,-1,-1,-1,-1,-1],"loss_changes":[4.6940265E0,3.861569E0,3.3283858E0,5.624949E0,7.598022E0,3.3632412E0,0E0,0E0,0E0,0E0,0E0,0E0,0E0],"parents":[2147483647,0,0,1,1,2,2,3,3,4,4,5,5],"right_children":[2,4,6,8,10,12,-1,-1,-1,-1,-1,-1,-1],"split_conditions":[3.35E2,1.6666666E1,2.3E1,3.44E2,1.8666666E1,1.13666664E2,8.4534846E-2,1.1782712E-2,-6.839088E-2,3.973368E-2,-8.175839E-3,-2.5565377E-2,5.7455096E-2],"split_indices":[44,19,53,27,21,24,0,0,0,0,0,0,0],"split_type":[0,0,0,0,0,0,0,0,0,0,0,0,0],"sum_hessian":[2.692469E2,2.4015135E2,2.9095531E1,3.6272324E1,2.0387903E2,1.8940008E1,1.0155522E1,1.5955576E1,2.031675E1,4.383728E1,1.6004175E2,1.0414262E1,8.525747E0],"tree_param":{"num_deleted":"0","num_feature":"67","num_nodes":"13","size_leaf_vector":"1"}},{"base_weights":[-2.5777388E-2,8.067265E-2,-1.8803695E-1,-4.1062355E-2,3.2591543E-1,-2.4857087E-1,6.313241E-2,-1.423333E-2,8.347891E-2,1.22497685E-1,1.6584931E-2,3.7277034E-3,-4.204412E-2],"categories":[],"categories_nodes":[],"categories_segments":[],"categories_sizes":[],"default_left":[0,0,0,0,0,0,0,0,0,0,0,0,0],"id":69,"left_children":[1,3,5,7,9,11,-1,-1,-1,-1,-1,-1,-1],"loss_changes":[4.6742163E0,4.897E0,5.350815E0,9.241524E0,7.5516815E0,4.5842643E0,0E0,0E0,0E0,0E0,0E0,0E0,0E0],"parents":[2147483647,0,0,1,1,2,2,3,3,4,4,5,5],"right_children":[2,4,6,8,10,12,-1,-1,-1,-1,-1,-1,-1],"split_conditions":[2.2E1,2.3966667E2,3.0533334E2,3.1E1,5.8E1,3.07E2,6.313241E-2,-1.423333E-2,8.347891E-2,1.22497685E-1,1.6584931E-2,3.7277034E-3,-4.204412E-2],"split_indices":[37,7,28,35,56,43,0,0,0,0,0,0,0],"split_type":[0,0,0,0,0,0,0,0,0,0,0,0,0],"sum_hessian":[2.6873727E2,1.625799E2,1.0615737E2,1.0920477E2,5.3375122E1,9.9343216E1,6.8141613E0,9.8772934E1,1.0431833E1,7.5513306E0,4.582379E1,3.6000355E1,6.3342857E1],"tree_param":{"num_deleted":"0","num_feature":"67","num_nodes":"13","size_leaf_vector":"1"}},{"base_weights":[1.5523085E-2,-5.218629E-2,2.4637502E-1,-1.3165078E-1,3.2517856E-1,6.3425E-1,-1.8363965E-1,-4.4637932E-3,-5.2824445E-2,-3.8003754E-2,4.9807176E-2,1.1466873E-1,3.816523E-2,1.502219E-2,-7.119405E-2],"categories":[],"categories_nodes":[],"categories_segments":[],"categories_sizes":[],"default_left":[0,1,0,0,0,0,0,0,0,0,0,0,0,0,0],"id":70,"left_children":[1,3,5,7,9,11,13,-1,-1,-1,-1,-1,-1,-1,-1],"loss_changes":[4.165275E0,6.227166E0,1.0194307E1,5.740338E0,4.1641903E0,3.6309566E0,5.0287156E0,0E0,0E0,0E0,0E0,0E0,0E0,0E0,0E0],"parents":[2147483647,0,0,1,1,2,2,3,3,4,4,5,5,6,6],"right_children":[2,4,6,8,10,12,14,-1,-1,-1,-1,-1,-1,-1,-1],"split_conditions":[4.17E2,3E0,3E0,2.8E1,2.9066666E2,3.01E2,3.2E1,-4.4637932E-3,-5.2824445E-2,-3.8003754E-2,4.9807176E-2,1.1466873E-1,3.816523E-2,1.502219E-2,-7.119405E-2],"split_indices":[38,46,46,35,27,39,35,0,0,0,0,0,0,0,0],"split_type":[0,0,0,0,0,0,0,0,0,0,0,0,0,0,0],"sum_hessian":[2.6465543E2,2.0523383E2,5.942159E1,1.7007172E2,3.5162117E1,3.099186E1,2.8429731E1,1.390196E2,3.105211E1,6.294938E0,2.886718E1,9.841166E0,2.1150694E1,1.7675554E1,1.0754177E1],"tree_param":{"num_deleted":"0","num_feature":"67","num_nodes":"15","size_leaf_vector":"1"}},{"base_weights":[6.785688E-3,-6.633016E-2,3.1943772E-2,4.886159E-1,-9.878473E-3,8.777629E-2,-2.4710314E-2,-1.3669881E-2,1.4798466E-2],"categories":[],"categories_nodes":[],"categories_segments":[],"categories_sizes":[],"default_left":[0,0,0,0,0,0,0,0,0],"id":71,"left_children":[1,-1,3,5,7,-1,-1,-1,-1],"loss_changes":[4.4535832E0,0E0,4.9986773E0,6.0311174E0,4.561995E0,0E0,0E0,0E0,0E0],"parents":[2147483647,0,0,2,2,3,3,4,4],"right_children":[2,-1,4,6,8,-1,-1,-1,-1],"split_conditions":[1.4666667E1,-6.633016E-2,2.8133334E2,3.81E2,3.56E2,8.777629E-2,-2.4710314E-2,-1.3669881E-2,1.4798466E-2],"split_indices":[21,0,22,38,6,0,0,0,0],"split_type":[0,0,0,0,0,0,0,0,0],"sum_hessian":[2.6958292E2,9.11182E0,2.604711E2,2.0956491E1,2.3951462E2,1.3859737E1,7.096753E0,1.3313489E2,1.0637973E2],"tree_param":{"num_deleted":"0","num_feature":"67","num_nodes":"9","size_leaf_vector":"1"}},{"base_weights":[3.5412807E-4,-3.9018026E-1,3.7503026E-2,1.2846313E-1,-1.00286275E-1,1.595353E-1,-1.0894123E-1,-3.5800483E-2,5.8969066E-2,3.5987822E-3,6.209049E-2,-4.4174306E-2,7.973029E-3],"categories":[],"categories_nodes":[],"categories_segments":[],"categories_sizes":[],"default_left":[0,0,0,0,0,0,0,0,0,0,0,0,0],"id":72,"left_children":[1,3,5,7,-1,9,11,-1,-1,-1,-1,-1,-1],"loss_changes":[3.9295166E0,7.2527695E0,4.4371815E0,3.0242095E0,0E0,7.4577127E0,6.7789097E0,0E0,0E0,0E0,0E0,0E0,0E0],"parents":[2147483647,0,0,1,1,2,2,3,3,5,5,6,6],"right_children":[2,4,6,8,-1,10,12,-1,-1,-1,-1,-1,-1],"split_conditions":[1.4E1,3E2,2.0666666E1,1.7E1,-1.00286275E-1,3.78E2,2.2633333E2,-3.5800483E-2,5.8969066E-2,3.5987822E-3,6.209049E-2,-4.4174306E-2,7.973029E-3],"split_indices":[42,11,26,4,0,59,12,0,0,0,0,0,0],"split_type":[0,0,0,0,0,0,0,0,0,0,0,0,0],"sum_hessian":[2.6884454E2,2.2526594E1,2.4631796E2,1.2345437E1,1.0181157E1,1.3430879E2,1.1200917E2,6.0642385E0,6.281198E0,1.0570889E2,2.8599897E1,4.0731804E1,7.127737E1],"tree_param":{"num_deleted":"0","num_feature":"67","num_nodes":"13","size_leaf_vector":"1"}},{"base_weights":[1.6550554E-2,-1.574948E-2,5.2077276E-1,3.5486944E-2,-3.480275E-1,1.0749571E-1,-2.9088387E-2,-2.8255659E-3,4.0633943E-2,5.4317657E-2,-6.947331E-2],"categories":[],"categories_nodes":[],"categories_segments":[],"categories_sizes":[],"default_left":[0,0,0,0,0,0,0,0,0,0,0],"id":73,"left_children":[1,3,5,7,9,-1,-1,-1,-1,-1,-1],"loss_changes":[4.3879166E0,4.33152E0,7.1174636E0,5.001819E0,1.0086685E1,0E0,0E0,0E0,0E0,0E0,0E0],"parents":[2147483647,0,0,1,1,2,2,3,3,4,4],"right_children":[2,4,6,8,10,-1,-1,-1,-1,-1,-1],"split_conditions":[3.64E2,3.07E2,2.9866666E2,2.75E2,1.8E2,1.0749571E-1,-2.9088387E-2,-2.8255659E-3,4.0633943E-2,5.4317657E-2,-6.947331E-2],"split_indices":[60,60,28,60,39,0,0,0,0,0,0],"split_type":[0,0,0,0,0,0,0,0,0,0,0],"sum_hessian":[2.679186E2,2.5269966E2,1.5218955E1,2.1971358E2,3.2986076E1,9.032322E0,6.186633E0,1.8774823E2,3.1965347E1,8.799887E0,2.418619E1],"tree_param":{"num_deleted":"0","num_feature":"67","num_nodes":"11","size_leaf_vector":"1"}},{"base_weights":[-1.9565634E-3,2.869588E-2,-5.131247E-1,-2.5478628E-1,8.954966E-2,-1.0772397E-1,2.2674393E-2,2.6268584E-3,-7.0716836E-2,5.3960644E-2,4.292431E-3],"categories":[],"categories_nodes":[],"categories_segments":[],"categories_sizes":[],"default_left":[0,0,0,0,0,0,0,0,0,0,0],"id":74,"left_children":[1,3,5,7,9,-1,-1,-1,-1,-1,-1],"loss_changes":[4.220359E0,4.407572E0,6.192261E0,5.4916983E0,4.3458276E0,0E0,0E0,0E0,0E0,0E0,0E0],"parents":[2147483647,0,0,1,1,2,2,3,3,4,4],"right_children":[2,4,6,8,10,-1,-1,-1,-1,-1,-1],"split_conditions":[4.1E1,6.8E1,2.72E2,1.17666664E2,2.8133334E2,-1.0772397E-1,2.2674393E-2,2.6268584E-3,-7.0716836E-2,5.3960644E-2,4.292431E-3],"split_indices":[52,40,55,29,22,0,0,0,0,0,0],"split_type":[0,0,0,0,0,0,0,0,0,0,0],"sum_hessian":[2.6741245E2,2.5317458E2,1.4237874E1,4.4179813E1,2.0899477E2,7.9953866E0,6.2424874E0,2.7371174E1,1.6808638E1,1.973575E1,1.8925902E2],"tree_param":{"num_deleted":"0","num_feature":"67","num_nodes":"11","size_leaf_vector":"1"}},{"base_weights":[4.743705E-3,1.4908236E-1,-1.1941757E-1,2.7493587E-1,-1.24578424E-1,-2.5580022E-1,1.5432017E-1,-2.7989065E-3,6.0307465E-2,5.694948E-2,-3.737946E-2,6.803566E-2,-3.3285357E-2,-2.9674987E-3,5.6886137E-2],"categories":[],"categories_nodes":[],"categories_segments":[],"categories_sizes":[],"default_left":[0,0,0,0,0,0,0,0,0,0,0,0,0,0,0],"id":75,"left_children":[1,3,5,7,9,11,13,-1,-1,-1,-1,-1,-1,-1,-1],"loss_changes":[4.8507752E0,4.344591E0,5.472453E0,8.099548E0,6.6880655E0,6.2550693E0,3.5921707E0,0E0,0E0,0E0,0E0,0E0,0E0,0E0,0E0],"parents":[2147483647,0,0,1,1,2,2,3,3,4,4,5,5,6,6],"right_children":[2,4,6,8,10,12,14,-1,-1,-1,-1,-1,-1,-1,-1],"split_conditions":[3.4266666E2,2.5766666E2,4.0033334E2,9.5E1,6.9E1,2.61E2,1.18E2,-2.7989065E-3,6.0307465E-2,5.694948E-2,-3.737946E-2,6.803566E-2,-3.3285357E-2,-2.9674987E-3,5.6886137E-2],"split_indices":[27,12,27,29,61,6,56,0,0,0,0,0,0,0,0],"split_type":[0,0,0,0,0,0,0,0,0,0,0,0,0,0,0],"sum_hessian":[2.6867798E2,1.24150795E2,1.4452719E2,8.503808E1,3.9112717E1,9.650942E1,4.8017765E1,4.3595333E1,4.144275E1,9.838807E0,2.9273909E1,6.022764E0,9.0486664E1,3.352945E1,1.4488314E1],"tree_param":{"num_deleted":"0","num_feature":"67","num_nodes":"15","size_leaf_vector":"1"}},{"base_weights":[-9.674194E-3,-9.5835075E-2,1.5895571E-1,2.808319E-3,-4.3592703E-1,3.137697E-1,-2.732723E-1,-3.7416898E-2,1.4080477E-2,3.0618764E-2,-6.8039276E-2,4.5443475E-2,-2.575633E-2,1.6195206E-2,-6.4203985E-2],"categories":[],"categories_nodes":[],"categories_segments":[],"categories_sizes":[],"default_left":[0,0,0,0,0,0,0,0,0,0,0,0,0,0,0],"id":76,"left_children":[1,3,5,7,9,11,13,-1,-1,-1,-1,-1,-1,-1,-1],"loss_changes":[4.012863E0,6.131196E0,6.3368883E0,7.050753E0,6.979969E0,5.099151E0,3.8971295E0,0E0,0E0,0E0,0E0,0E0,0E0,0E0,0E0],"parents":[2147483647,0,0,1,1,2,2,3,3,4,4,5,5,6,6],"right_children":[2,4,6,8,10,12,14,-1,-1,-1,-1,-1,-1,-1,-1],"split_conditions":[2.5333334E1,2.3E1,3.6E1,9.2E1,1.78E2,4.2233334E2,2E1,-3.7416898E-2,1.4080477E-2,3.0618764E-2,-6.8039276E-2,4.5443475E-2,-2.575633E-2,1.6195206E-2,-6.4203985E-2],"split_indices":[3,3,35,29,44,6,53,0,0,0,0,0,0,0,0],"split_type":[0,0,0,0,0,0,0,0,0,0,0,0,0,0,0],"sum_hessian":[2.7414264E2,1.8172337E2,9.241926E1,1.4163422E2,4.0089146E1,6.824835E1,2.4170904E1,3.747203E1,1.04162186E2,9.339271E0,3.0749876E1,5.5823174E1,1.24251795E1,1.1093077E1,1.3077827E1],"tree_param":{"num_deleted":"0","num_feature":"67","num_nodes":"15","size_leaf_vector":"1"}},{"base_weights":[-2.9815543E-2,-5.464989E-2,7.8054905E-2,2.5482982E-1,-1.022619E-1,-4.7297966E-2,7.7786356E-2,-6.2749786E-3,-6.1910044E-2],"categories":[],"categories_nodes":[],"categories_segments":[],"categories_sizes":[],"default_left":[0,0,0,0,0,0,0,0,0],"id":77,"left_children":[1,3,-1,5,7,-1,-1,-1,-1],"loss_changes":[5.2933283E0,3.8727272E0,0E0,1.2904271E1,4.64258E0,0E0,0E0,0E0,0E0],"parents":[2147483647,0,0,1,1,3,3,4,4],"right_children":[2,4,-1,6,8,-1,-1,-1,-1],"split_conditions":[2.6666666E1,5.8E1,7.8054905E-2,3.46E2,2.5E1,-4.7297966E-2,7.7786356E-2,-6.2749786E-3,-6.1910044E-2],"split_indices":[21,56,0,6,21,0,0,0,0],"split_type":[0,0,0,0,0,0,0,0,0],"sum_hessian":[2.67321E2,2.6005734E2,7.2636805E0,3.409386E1,2.2596347E2,1.4086734E1,2.0007128E1,2.0973509E2,1.6228384E1],"tree_param":{"num_deleted":"0","num_feature":"67","num_nodes":"9","size_leaf_vector":"1"}},{"base_weights":[-6.3044034E-2,1.0570271E-3,-2.4327643E-1,-5.288776E-2,6.415584E-1,1.8214731E-1,-4.0624246E-1,5.9421244E-3,-3.362803E-2,-9.783216E-3,1.1626433E-1,8.997886E-2,-1.8668441E-2,-6.346994E-2,2.3004266E-2],"categories":[],"categories_nodes":[],"categories_segments":[],"categories_sizes":[],"default_left":[0,0,0,0,0,0,0,0,0,0,0,0,0,0,0],"id":78,"left_children":[1,3,5,7,9,11,13,-1,-1,-1,-1,-1,-1,-1,-1],"loss_changes":[3.087384E0,6.878783E0,4.9345336E0,5.5812063E0,5.666381E0,5.2170644E0,6.894823E0,0E0,0E0,0E0,0E0,0E0,0E0,0E0,0E0],"parents":[2147483647,0,0,1,1,2,2,3,3,4,4,5,5,6,6],"right_children":[2,4,6,8,10,12,14,-1,-1,-1,-1,-1,-1,-1,-1],"split_conditions":[1.3233333E2,1.25333336E2,2.79E2,5E0,3.49E2,2.0333334E1,2.6333334E1,5.9421244E-3,-3.362803E-2,-9.783216E-3,1.1626433E-1,8.997886E-2,-1.8668441E-2,-6.346994E-2,2.3004266E-2],"split_indices":[8,8,43,46,38,20,4,0,0,0,0,0,0,0,0],"split_type":[0,0,0,0,0,0,0,0,0,0,0,0,0,0,0],"sum_hessian":[2.6621225E2,1.971046E2,6.910766E1,1.8263962E2,1.4464983E1,1.9108116E1,4.9999546E1,1.3064932E2,5.199029E1,6.0850577E0,8.379926E0,6.0968146E0,1.3011301E1,3.7493866E1,1.2505678E1],"tree_param":{"num_deleted":"0","num_feature":"67","num_nodes":"15","size_leaf_vector":"1"}},{"base_weights":[-7.794025E-4,-4.6889973E-1,2.5274083E-2,1.5141421E-3,-9.55166E-2,2.2830535E-1,-5.9085585E-2,3.3362698E-2,-4.4064082E-2,-8.2254186E-2,-2.6084648E-3],"categories":[],"categories_nodes":[],"categories_segments":[],"categories_sizes":[],"default_left":[0,0,0,0,0,0,0,0,0,0,0],"id":79,"left_children":[1,3,5,-1,-1,7,9,-1,-1,-1,-1],"loss_changes":[3.2204998E0,3.104422E0,4.298232E0,0E0,0E0,4.7706313E0,4.4128838E0,0E0,0E0,0E0,0E0],"parents":[2147483647,0,0,1,1,2,2,5,5,6,6],"right_children":[2,4,6,-1,-1,8,10,-1,-1,-1,-1],"split_conditions":[-4.51E2,2.31E2,1.9666666E1,1.5141421E-3,-9.55166E-2,1.4966667E2,2.01E2,3.3362698E-2,-4.4064082E-2,-8.2254186E-2,-2.6084648E-3],"split_indices":[66,44,3,0,0,29,59,0,0,0,0],"split_type":[0,0,0,0,0,0,0,0,0,0,0],"sum_hessian":[2.6208667E2,1.2921416E1,2.4916525E2,6.7639723E0,6.1574435E0,7.2638176E1,1.7652708E2,6.3826603E1,8.811573E0,6.7088585E0,1.6981822E2],"tree_param":{"num_deleted":"0","num_feature":"67","num_nodes":"11","size_leaf_vector":"1"}},{"base_weights":[-2.0714322E-2,-1.5199979E-1,7.311086E-2,1.0942878E-1,-3.3520016E-1,-1.1793699E-1,2.0480949E-1,-6.022214E-2,4.0320467E-2,-2.3743946E-2,-1.0866817E-1,-6.4450465E-2,3.1765273E-3,5.078572E-2,-4.21898E-3],"categories":[],"categories_nodes":[],"categories_segments":[],"categories_sizes":[],"default_left":[0,0,0,0,0,0,0,0,0,0,0,0,0,0,0],"id":80,"left_children":[1,3,5,7,9,11,13,-1,-1,-1,-1,-1,-1,-1,-1],"loss_changes":[3.3271637E0,5.426115E0,3.9914348E0,9.467352E0,4.757856E0,4.9329667E0,6.6670094E0,0E0,0E0,0E0,0E0,0E0,0E0,0E0,0E0],"parents":[2147483647,0,0,1,1,2,2,3,3,4,4,5,5,6,6],"right_children":[2,4,6,8,10,12,14,-1,-1,-1,-1,-1,-1,-1,-1],"split_conditions":[1.02333336E2,7.6E1,9E1,2.3333333E0,3.6E1,1.7666666E1,1.05E2,-6.022214E-2,4.0320467E-2,-2.3743946E-2,-1.0866817E-1,-6.4450465E-2,3.1765273E-3,5.078572E-2,-4.21898E-3],"split_indices":[29,61,56,9,35,5,8,0,0,0,0,0,0,0,0],"split_type":[0,0,0,0,0,0,0,0,0,0,0,0,0,0,0],"sum_hessian":[2.6820624E2,1.11528824E2,1.5667741E2,4.6119118E1,6.5409706E1,6.397579E1,9.270162E1,1.3018541E1,3.310058E1,5.82766E1,7.1331077E0,1.3762285E1,5.02135E1,4.2175682E1,5.0525944E1],"tree_param":{"num_deleted":"0","num_feature":"67","num_nodes":"15","size_leaf_vector":"1"}},{"base_weights":[1.4858962E-3,-4.5896608E-1,5.2083503E-2,1.55624915E-2,-7.105833E-1,-1.3346547E-1,1.6132556E-1,-9.794589E-2,-1.964423E-2,1.5943153E-2,-4.6070784E-2,2.1331517E-2,-6.265475E-2],"categories":[],"categories_nodes":[],"categories_segments":[],"categories_sizes":[],"default_left":[0,0,0,0,0,0,0,0,0,0,0,0,0],"id":81,"left_children":[1,3,5,-1,7,9,11,-1,-1,-1,-1,-1,-1],"loss_changes":[6.3087564E0,4.2235475E0,4.9663715E0,0E0,2.217988E0,8.307729E0,5.571475E0,0E0,0E0,0E0,0E0,0E0,0E0],"parents":[2147483647,0,0,1,1,2,2,4,4,5,5,6,6],"right_children":[2,4,6,-1,8,10,12,-1,-1,-1,-1,-1,-1],"split_conditions":[1.6333334E1,2.1366667E2,2.1333334E1,1.55624915E-2,2.59E2,3.1366666E2,2.6E1,-9.794589E-2,-1.964423E-2,1.5943153E-2,-4.6070784E-2,2.1331517E-2,-6.265475E-2],"split_indices":[21,12,4,0,39,11,5,0,0,0,0,0,0],"split_type":[0,0,0,0,0,0,0,0,0,0,0,0,0],"sum_hessian":[2.68762E2,2.5810305E1,2.4295169E2,7.6524754E0,1.815783E1,8.994955E1,1.5300214E2,1.1837793E1,6.3200355E0,4.7162777E1,4.278677E1,1.4508167E2,7.920467E0],"tree_param":{"num_deleted":"0","num_feature":"67","num_nodes":"13","size_leaf_vector":"1"}},{"base_weights":[3.882838E-2,1.3003446E-1,-1.3122892E-1,-1.3499379E-1,2.4424846E-1,3.405817E-1,-2.5034148E-1,2.2337299E-2,-5.205114E-2,-6.279394E-2,3.0781122E-2,-1.7577505E-2,9.652482E-2,1.6839076E-2,-3.7081875E-2],"categories":[],"categories_nodes":[],"categories_segments":[],"categories_sizes":[],"default_left":[0,0,0,0,0,0,0,0,0,0,0,0,0,0,0],"id":82,"left_children":[1,3,5,7,9,11,13,-1,-1,-1,-1,-1,-1,-1,-1],"loss_changes":[4.1127124E0,5.2509127E0,5.293761E0,6.968163E0,5.8390455E0,5.994442E0,3.4522042E0,0E0,0E0,0E0,0E0,0E0,0E0,0E0,0E0],"parents":[2147483647,0,0,1,1,2,2,3,3,4,4,5,5,6,6],"right_children":[2,4,6,8,10,12,14,-1,-1,-1,-1,-1,-1,-1,-1],"split_conditions":[2.7E1,1.8E1,1.7666666E1,2.0666666E1,6.1E1,2.5E1,1.8666666E1,2.2337299E-2,-5.205114E-2,-6.279394E-2,3.0781122E-2,-1.7577505E-2,9.652482E-2,1.6839076E-2,-3.7081875E-2],"split_indices":[51,42,10,5,24,52,20,0,0,0,0,0,0,0,0],"split_type":[0,0,0,0,0,0,0,0,0,0,0,0,0,0,0],"sum_hessian":[2.6306055E2,1.7138028E2,9.1680275E1,5.1558723E1,1.1982155E2,1.8105236E1,7.3575035E1,2.665882E1,2.4899904E1,6.6120777E0,1.1320947E2,1.0138266E1,7.966971E0,1.5335896E1,5.823914E1],"tree_param":{"num_deleted":"0","num_feature":"67","num_nodes":"15","size_leaf_vector":"1"}},{"base_weights":[-1.2308463E-3,1.8263288E-1,-8.863454E-2,8.8701464E-2,6.14557E-2,2.4786444E-1,-1.632682E-1,6.964874E-2,-3.9905794E-3,-7.275602E-3,7.121118E-2,-6.932081E-2,-1.0752963E-2],"categories":[],"categories_nodes":[],"categories_segments":[],"categories_sizes":[],"default_left":[0,0,0,0,0,0,0,0,0,0,0,0,0],"id":83,"left_children":[1,3,5,-1,7,9,11,-1,-1,-1,-1,-1,-1],"loss_changes":[4.327222E0,7.0871224E0,4.6237607E0,0E0,4.6322947E0,4.790515E0,4.4287853E0,0E0,0E0,0E0,0E0,0E0,0E0],"parents":[2147483647,0,0,1,1,2,2,4,4,5,5,6,6],"right_children":[2,4,6,-1,8,10,12,-1,-1,-1,-1,-1,-1],"split_conditions":[2.6666667E0,6.1E1,1.7666666E1,8.8701464E-2,-2.96E2,3.73E2,1.3E1,6.964874E-2,-3.9905794E-3,-7.275602E-3,7.121118E-2,-6.932081E-2,-1.0752963E-2],"split_indices":[14,61,10,0,65,54,36,0,0,0,0,0,0],"split_type":[0,0,0,0,0,0,0,0,0,0,0,0,0],"sum_hessian":[2.672598E2,8.5761375E1,1.8149843E2,1.2059958E1,7.3701416E1,3.2526386E1,1.4897205E2,9.519175E0,6.418224E1,1.9427889E1,1.3098497E1,1.4313935E1,1.3465811E2],"tree_param":{"num_deleted":"0","num_feature":"67","num_nodes":"13","size_leaf_vector":"1"}},{"base_weights":[3.308282E-2,6.0087815E-2,-9.096943E-2,2.0467635E-2,5.776555E-1,1.1173719E-2,-3.1425305E-2,-7.3013484E-4,9.3741916E-2],"categories":[],"categories_nodes":[],"categories_segments":[],"categories_sizes":[],"default_left":[0,0,0,0,0,0,0,0,0],"id":84,"left_children":[1,3,-1,5,7,-1,-1,-1,-1],"loss_changes":[6.66353E0,5.325368E0,0E0,7.000934E0,3.60397E0,0E0,0E0,0E0,0E0],"parents":[2147483647,0,0,1,1,3,3,4,4],"right_children":[2,4,-1,6,8,-1,-1,-1,-1],"split_conditions":[3E1,4.66E2,-9.096943E-2,3E1,1.92E2,1.1173719E-2,-3.1425305E-2,-7.3013484E-4,9.3741916E-2],"split_indices":[58,54,0,51,44,0,0,0,0],"split_type":[0,0,0,0,0,0,0,0,0],"sum_hessian":[2.6597495E2,2.5927304E2,6.701901E0,2.4180243E2,1.7470606E1,1.9086084E2,5.09416E1,6.695279E0,1.0775328E1],"tree_param":{"num_deleted":"0","num_feature":"67","num_nodes":"9","size_leaf_vector":"1"}},{"base_weights":[2.5202908E-2,-5.347157E-2,1.7177482E-1,2.872496E-2,-3.567112E-1,3.4886426E-1,-6.544082E-2,1.7384753E-2,-3.0065138E-2,-1.659147E-2,-1.182193E-1,3.6363816E-4,9.097346E-2,-2.2892205E-2,5.3802203E-2],"categories":[],"categories_nodes":[],"categories_segments":[],"categories_sizes":[],"default_left":[0,0,0,0,0,1,0,0,0,0,0,0,0,0,0],"id":85,"left_children":[1,3,5,7,9,11,13,-1,-1,-1,-1,-1,-1,-1,-1],"loss_changes":[3.1059842E0,4.384983E0,3.973203E0,6.300712E0,5.6211686E0,9.973152E0,3.9047794E0,0E0,0E0,0E0,0E0,0E0,0E0,0E0,0E0],"parents":[2147483647,0,0,1,1,2,2,3,3,4,4,5,5,6,6],"right_children":[2,4,6,8,10,12,14,-1,-1,-1,-1,-1,-1,-1,-1],"split_conditions":[2.5333334E1,2.3E1,2.5766666E2,1.81E2,4.28E2,2E0,3.05E2,1.7384753E-2,-3.0065138E-2,-1.659147E-2,-1.182193E-1,3.6363816E-4,9.097346E-2,-2.2892205E-2,5.3802203E-2],"split_indices":[3,3,12,65,59,57,12,0,0,0,0,0,0,0,0],"split_type":[0,0,0,0,0,0,0,0,0,0,0,0,0,0,0],"sum_hessian":[2.6755203E2,1.7451428E2,9.3037735E1,1.380103E2,3.650398E1,5.3000458E1,4.003728E1,9.6375015E1,4.163529E1,3.0240568E1,6.2634096E0,3.282092E1,2.0179537E1,3.2093903E1,7.943377E0],"tree_param":{"num_deleted":"0","num_feature":"67","num_nodes":"15","size_leaf_vector":"1"}},{"base_weights":[-1.776549E-2,-5.4955965E-1,1.1992036E-2,-1.5967203E-2,-9.444811E-2,-1.8358001E-1,9.587523E-2,-3.3271786E-2,5.005615E-2,7.473047E-2,2.0335508E-3],"categories":[],"categories_nodes":[],"categories_segments":[],"categories_sizes":[],"default_left":[0,0,0,0,0,0,0,0,0,0,0],"id":86,"left_children":[1,3,5,-1,-1,7,9,-1,-1,-1,-1],"loss_changes":[4.167714E0,1.8835125E0,4.118785E0,0E0,0E0,7.2101974E0,8.409113E0,0E0,0E0,0E0,0E0],"parents":[2147483647,0,0,1,1,2,2,5,5,6,6],"right_children":[2,4,6,-1,-1,8,10,-1,-1,-1,-1],"split_conditions":[-4.51E2,1.8333334E1,1.8E1,-1.5967203E-2,-9.444811E-2,3.13E2,1.7E2,-3.3271786E-2,5.005615E-2,7.473047E-2,2.0335508E-3],"split_indices":[66,5,42,0,0,55,44,0,0,0,0],"split_type":[0,0,0,0,0,0,0,0,0,0,0],"sum_hessian":[2.619482E2,1.2955404E1,2.4899281E2,6.939618E0,6.015786E0,7.438264E1,1.7461018E2,6.1978134E1,1.2404499E1,1.7898281E1,1.567119E2],"tree_param":{"num_deleted":"0","num_feature":"67","num_nodes":"11","size_leaf_vector":"1"}},{"base_weights":[-2.761131E-2,9.400902E-4,-5.3207076E-1,-3.7244967E-1,3.948301E-2,-1.0246909E-1,-7.3347106E-3,1.6787129E-2,-9.475096E-2,1.7152477E-2,-1.3202991E-2],"categories":[],"categories_nodes":[],"categories_segments":[],"categories_sizes":[],"default_left":[0,0,0,0,0,0,0,0,0,0,0],"id":87,"left_children":[1,3,5,7,9,-1,-1,-1,-1,-1,-1],"loss_changes":[3.8388624E0,3.6589286E0,2.9781318E0,7.1327286E0,4.936862E0,0E0,0E0,0E0,0E0,0E0,0E0],"parents":[2147483647,0,0,1,1,2,2,3,3,4,4],"right_children":[2,4,6,8,10,-1,-1,-1,-1,-1,-1],"split_conditions":[2.9E1,1.4E1,3.18E2,2.32E2,3E0,-1.0246909E-1,-7.3347106E-3,1.6787129E-2,-9.475096E-2,1.7152477E-2,-1.3202991E-2],"split_indices":[58,42,38,39,41,0,0,0,0,0,0],"split_type":[0,0,0,0,0,0,0,0,0,0,0],"sum_hessian":[2.65497E2,2.5221999E2,1.3277014E1,2.2788647E1,2.2943134E2,6.0409927E0,7.2360206E0,1.1881553E1,1.0907094E1,1.3051016E2,9.892117E1],"tree_param":{"num_deleted":"0","num_feature":"67","num_nodes":"11","size_leaf_vector":"1"}},{"base_weights":[-6.4641103E-4,-1.0716516E-1,1.9625336E-1,-5.502698E-2,-7.789923E-2,1.0238209E-1,8.208262E-2,-3.612395E-2,2.2294666E-3,2.5250271E-2,-2.5325447E-2],"categories":[],"categories_nodes":[],"categories_segments":[],"categories_sizes":[],"default_left":[0,0,0,0,0,0,0,0,0,0,0],"id":88,"left_children":[1,3,5,7,-1,9,-1,-1,-1,-1,-1],"loss_changes":[5.6399436E0,5.8690076E0,5.2461996E0,3.6979928E0,0E0,4.1840963E0,0E0,0E0,0E0,0E0,0E0],"parents":[2147483647,0,0,1,1,2,2,3,3,5,5],"right_children":[2,4,6,8,-1,10,-1,-1,-1,-1,-1],"split_conditions":[2.5333334E1,2.4666666E1,1.4533333E2,8.7E1,-7.789923E-2,3.6666666E2,8.208262E-2,-3.612395E-2,2.2294666E-3,2.5250271E-2,-2.5325447E-2],"split_indices":[3,3,29,29,0,27,0,0,0,0,0],"split_type":[0,0,0,0,0,0,0,0,0,0,0],"sum_hessian":[2.6690512E2,1.7350058E2,9.3404526E1,1.6161485E2,1.1885728E1,8.1802414E1,1.1602111E1,3.252529E1,1.2908957E2,5.8216526E1,2.3585892E1],"tree_param":{"num_deleted":"0","num_feature":"67","num_nodes":"11","size_leaf_vector":"1"}},{"base_weights":[-3.8392995E-3,-3.9314765E-2,4.8292208E-1,7.377022E-2,-1.6104637E-1,9.522424E-2,-3.0438853E-2,1.7691344E-3,8.443165E-2,-6.653755E-2,-7.723227E-3],"categories":[],"categories_nodes":[],"categories_segments":[],"categories_sizes":[],"default_left":[0,0,1,0,0,0,0,0,0,0,0],"id":89,"left_children":[1,3,5,7,9,-1,-1,-1,-1,-1,-1],"loss_changes":[4.62387E0,3.4462266E0,6.537013E0,5.4778585E0,4.980689E0,0E0,0E0,0E0,0E0,0E0,0E0],"parents":[2147483647,0,0,1,1,2,2,3,3,4,4],"right_children":[2,4,6,8,10,-1,-1,-1,-1,-1,-1],"split_conditions":[1.6533333E2,1.02E2,1.6666666E0,-1.12E2,1.4E1,9.522424E-2,-3.0438853E-2,1.7691344E-3,8.443165E-2,-6.653755E-2,-7.723227E-3],"split_indices":[8,65,14,65,51,0,0,0,0,0,0],"split_type":[0,0,0,0,0,0,0,0,0,0,0],"sum_hessian":[2.6567017E2,2.4848003E2,1.7190145E1,1.2901913E2,1.1946089E2,1.0843602E1,6.346543E0,1.20880005E2,8.139131E0,1.7001457E1,1.02459435E2],"tree_param":{"num_deleted":"0","num_feature":"67","num_nodes":"11","size_leaf_vector":"1"}},{"base_weights":[-2.608084E-2,2.253631E-2,-3.220377E-1,-1.4758612E-1,1.3886297E-1,-1.0797728E-1,-7.37861E-2,4.8487667E-2,-2.3979494E-2,3.7076667E-2,-1.1869312E-2,3.1787053E-2,-7.3501326E-2],"categories":[],"categories_nodes":[],